tree
version=v3
num_class=1
num_tree_per_iteration=1
label_index=0
max_feature_idx=603
objective=regression
feature_names=Column_0 Column_1 Column_2 Column_3 Column_4 Column_5 Column_6 Column_7 Column_8 Column_9 Column_10 Column_11 Column_12 Column_13 Column_14 Column_15 Column_16 Column_17 Column_18 Column_19 Column_20 Column_21 Column_22 Column_23 Column_24 Column_25 Column_26 Column_27 Column_28 Column_29 Column_30 Column_31 Column_32 Column_33 Column_34 Column_35 Column_36 Column_37 Column_38 Column_39 Column_40 Column_41 Column_42 Column_43 Column_44 Column_45 Column_46 Column_47 Column_48 Column_49 Column_50 Column_51 Column_52 Column_53 Column_54 Column_55 Column_56 Column_57 Column_58 Column_59 Column_60 Column_61 Column_62 Column_63 Column_64 Column_65 Column_66 Column_67 Column_68 Column_69 Column_70 Column_71 Column_72 Column_73 Column_74 Column_75 Column_76 Column_77 Column_78 Column_79 Column_80 Column_81 Column_82 Column_83 Column_84 Column_85 Column_86 Column_87 Column_88 Column_89 Column_90 Column_91 Column_92 Column_93 Column_94 Column_95 Column_96 Column_97 Column_98 Column_99 Column_100 Column_101 Column_102 Column_103 Column_104 Column_105 Column_106 Column_107 Column_108 Column_109 Column_110 Column_111 Column_112 Column_113 Column_114 Column_115 Column_116 Column_117 Column_118 Column_119 Column_120 Column_121 Column_122 Column_123 Column_124 Column_125 Column_126 Column_127 Column_128 Column_129 Column_130 Column_131 Column_132 Column_133 Column_134 Column_135 Column_136 Column_137 Column_138 Column_139 Column_140 Column_141 Column_142 Column_143 Column_144 Column_145 Column_146 Column_147 Column_148 Column_149 Column_150 Column_151 Column_152 Column_153 Column_154 Column_155 Column_156 Column_157 Column_158 Column_159 Column_160 Column_161 Column_162 Column_163 Column_164 Column_165 Column_166 Column_167 Column_168 Column_169 Column_170 Column_171 Column_172 Column_173 Column_174 Column_175 Column_176 Column_177 Column_178 Column_179 Column_180 Column_181 Column_182 Column_183 Column_184 Column_185 Column_186 Column_187 Column_188 Column_189 Column_190 Column_191 Column_192 Column_193 Column_194 Column_195 Column_196 Column_197 Column_198 Column_199 Column_200 Column_201 Column_202 Column_203 Column_204 Column_205 Column_206 Column_207 Column_208 Column_209 Column_210 Column_211 Column_212 Column_213 Column_214 Column_215 Column_216 Column_217 Column_218 Column_219 Column_220 Column_221 Column_222 Column_223 Column_224 Column_225 Column_226 Column_227 Column_228 Column_229 Column_230 Column_231 Column_232 Column_233 Column_234 Column_235 Column_236 Column_237 Column_238 Column_239 Column_240 Column_241 Column_242 Column_243 Column_244 Column_245 Column_246 Column_247 Column_248 Column_249 Column_250 Column_251 Column_252 Column_253 Column_254 Column_255 Column_256 Column_257 Column_258 Column_259 Column_260 Column_261 Column_262 Column_263 Column_264 Column_265 Column_266 Column_267 Column_268 Column_269 Column_270 Column_271 Column_272 Column_273 Column_274 Column_275 Column_276 Column_277 Column_278 Column_279 Column_280 Column_281 Column_282 Column_283 Column_284 Column_285 Column_286 Column_287 Column_288 Column_289 Column_290 Column_291 Column_292 Column_293 Column_294 Column_295 Column_296 Column_297 Column_298 Column_299 Column_300 Column_301 Column_302 Column_303 Column_304 Column_305 Column_306 Column_307 Column_308 Column_309 Column_310 Column_311 Column_312 Column_313 Column_314 Column_315 Column_316 Column_317 Column_318 Column_319 Column_320 Column_321 Column_322 Column_323 Column_324 Column_325 Column_326 Column_327 Column_328 Column_329 Column_330 Column_331 Column_332 Column_333 Column_334 Column_335 Column_336 Column_337 Column_338 Column_339 Column_340 Column_341 Column_342 Column_343 Column_344 Column_345 Column_346 Column_347 Column_348 Column_349 Column_350 Column_351 Column_352 Column_353 Column_354 Column_355 Column_356 Column_357 Column_358 Column_359 Column_360 Column_361 Column_362 Column_363 Column_364 Column_365 Column_366 Column_367 Column_368 Column_369 Column_370 Column_371 Column_372 Column_373 Column_374 Column_375 Column_376 Column_377 Column_378 Column_379 Column_380 Column_381 Column_382 Column_383 Column_384 Column_385 Column_386 Column_387 Column_388 Column_389 Column_390 Column_391 Column_392 Column_393 Column_394 Column_395 Column_396 Column_397 Column_398 Column_399 Column_400 Column_401 Column_402 Column_403 Column_404 Column_405 Column_406 Column_407 Column_408 Column_409 Column_410 Column_411 Column_412 Column_413 Column_414 Column_415 Column_416 Column_417 Column_418 Column_419 Column_420 Column_421 Column_422 Column_423 Column_424 Column_425 Column_426 Column_427 Column_428 Column_429 Column_430 Column_431 Column_432 Column_433 Column_434 Column_435 Column_436 Column_437 Column_438 Column_439 Column_440 Column_441 Column_442 Column_443 Column_444 Column_445 Column_446 Column_447 Column_448 Column_449 Column_450 Column_451 Column_452 Column_453 Column_454 Column_455 Column_456 Column_457 Column_458 Column_459 Column_460 Column_461 Column_462 Column_463 Column_464 Column_465 Column_466 Column_467 Column_468 Column_469 Column_470 Column_471 Column_472 Column_473 Column_474 Column_475 Column_476 Column_477 Column_478 Column_479 Column_480 Column_481 Column_482 Column_483 Column_484 Column_485 Column_486 Column_487 Column_488 Column_489 Column_490 Column_491 Column_492 Column_493 Column_494 Column_495 Column_496 Column_497 Column_498 Column_499 Column_500 Column_501 Column_502 Column_503 Column_504 Column_505 Column_506 Column_507 Column_508 Column_509 Column_510 Column_511 Column_512 Column_513 Column_514 Column_515 Column_516 Column_517 Column_518 Column_519 Column_520 Column_521 Column_522 Column_523 Column_524 Column_525 Column_526 Column_527 Column_528 Column_529 Column_530 Column_531 Column_532 Column_533 Column_534 Column_535 Column_536 Column_537 Column_538 Column_539 Column_540 Column_541 Column_542 Column_543 Column_544 Column_545 Column_546 Column_547 Column_548 Column_549 Column_550 Column_551 Column_552 Column_553 Column_554 Column_555 Column_556 Column_557 Column_558 Column_559 Column_560 Column_561 Column_562 Column_563 Column_564 Column_565 Column_566 Column_567 Column_568 Column_569 Column_570 Column_571 Column_572 Column_573 Column_574 Column_575 Column_576 Column_577 Column_578 Column_579 Column_580 Column_581 Column_582 Column_583 Column_584 Column_585 Column_586 Column_587 Column_588 Column_589 Column_590 Column_591 Column_592 Column_593 Column_594 Column_595 Column_596 Column_597 Column_598 Column_599 Column_600 Column_601 Column_602 Column_603
feature_infos=[-1.1665156706613142:5.0229227714457476] [-2.3545950070148582:0.4247014866764201] [-1.2182284391960012:1.3885127496936958] [-1.5606497489859381:3.9005030002098957] [-2.2719899015192206:3.1821426784852345] [-3.5078892772365271:2.8968821717099211] [-2.5062498863996505:4.3255334119448339] [-3.4537939313743626:2.3914631191795546] [-4.8133516480259102:1.7844011325989328] [-5.2827416550078405:0.90525274528382149] [-0.54532200881173565:1.8337789119845602] [-1.7610008856605925:5.1412499152790945] [-2.5440570833378322:3.4945293245156526] [-1.7217723563796532:4.7896723399038006] [-3.5492721058081336:2.5053783507136704] [-2.758339842642469:2.8514218157823876] [-2.9517722755982714:3.5640122556987834] [-2.71590946524939:2.6518297070992909] [-2.5804489931875869:4.3277799376077137] [-2.9738814169470804:2.9127139615866966] [-3.4610203095840779:1.5941040612246726] [-4.8713561320990966:1.1734136707694904] [-0.55571893022621122:1.7994708216848736] [-1.1342677233975:5.9712147891880116] [-3.8420225847748397:2.3681197232557158] [-1.4749618535122595:4.5035704190640891] [-2.5890617734990209:2.0014256944662709] [-1.7288313400236182:4.2351830244436277] [-4.0289033114348323:2.8771223724426127] [-3.6963584411695556:2.4611867262989198] [-3.5797815554175494:3.4503730100894847] [-3.6507382637588166:2.6050582545557428] [-5.1215834457968823:1.4298131175568605] [-4.6378667104457625:1.1457207521599453] [-0.65640548992420367:1.5234485624360241] [-1.5842830685787641:5.796347173383392] [-2.9553607808663154:4.5377175503079323] [-1.981469238998266:3.6269076167147944] [-2.3182317450929366:3.2357708618309373] [-1.4522270865471716:1.3245374595587864] [-1.8627065212025069:4.329209768081876] [-1.6374879044199731:2.781412329438071] [-2.6023476781581314:2.2359286749064347] [-1.5697534139721872:2.4436755137808968] [-5.3901839678606258:1.3532423624147507] [-4.9536652558225098:0.9121065953451909] [-0.54185297928756992:1.8455190581675645] [-1.5007317087619356:6.6865162553837951] [-2.3163279850646696:3.1405365495564288] [-1.1890774810268578:6.1689198804562597] [-2.7409083361743147:1.9891656123995916] [-2.4013941862539832:2.0870470950100843] [-3.3954494332795511:3.8425063267055024] [-1.9069139118322671:3.6160553807062912] [-3.0186479458638114:2.7269101437302674] [-2.0553655477737967:3.4083464561949119] [-2.7900170737195378:2.1985690166402376] [-11.504417844514588:0.57028255847328613] [-0.68812058083948113:1.453233674220443] [-1.0478807688819445:5.0859227681733623] [-3.4233462465864384:2.8310432135994841] [-1.1502777265344539:9.5248291485892782] [-3.903128803925795:1.7972347597839498] [-1.2998839648743685:1.6600853245913822] [-1.9001073663486303:3.9095485374749908] [-1.7450280681544155:2.3937552699637288] [-2.2831666075590134:2.1711105932206509] [-1.7692720208476582:1.9249696097524047] [-4.287843228020316:1.2159701522979458] [-5.3572759787948039:0.74838734028403509] [-0.67045611388927151:1.4915219345217852] [-1.4695816776946669:5.8269310510135286] [-2.3727338017342774:3.068318093029939] [-1.3392801326189394:6.5914087595182895] [-2.8849910922780402:1.9441296721332713] [-2.5695507498875689:2.4968916473337663] [-2.8007915739474445:3.6433074307043412] [-2.1501313633438004:3.8277741457444039] [-2.8349973407410056:2.5663866854363713] [-2.1320462981212338:3.1816856065711927] [-2.9838220362348:2.2189398196557901] [-8.0192099908761172:0.593698320972606] [-0.6810402260319921:1.4683420476150746] [-1.0593054460952875:6.2098247059786775] [-3.9889061581656775:2.5170001932569472] [-1.2290037160960725:5.59136525603006] [-4.1952289526503481:1.7190494779893892] [-1.4457113235405568:1.565511754325988] [-2.3105043943945569:3.8804250012670152] [-1.8694632234381199:2.2029633744997623] [-2.2282964261488152:2.2847428124473246] [-1.8711234458775252:2.5112806647426136] [-4.1402450900678556:1.4105351353726829] [-4.8648567623563546:0.70455069980638307] [-0.67750748589414489:1.4759984514122448] [-1.4078396155673447:5.7595423451414938] [-1.9910216848590205:3.4390666593889412] [-1.3980588590127707:3.9978008604180943] [-3.2943910785424597:1.7171436322413249] [-2.4191481459073221:2.2339817379657489] [-3.1369727973984576:4.1239125775337424] [-1.9550206690852288:3.7156153662788598] [-2.8283088851318183:2.557364802111008] [-2.0144860843672991:3.7179864952536112] [-3.2251319253893329:2.1904263400609087] [-8.1873289889364109:0.56849969192255945] [-0.71307403281228143:1.4023789311974864] [-1.012950088189212:4.983843185167645] [-3.4338047281691511:2.7224586755948916] [-1.1167360017037908:7.680101490925674] [-4.3736970259072621:1.6461453131618675] [-1.7340466972436199:1.7194747381427651] [-2.3715210752966298:3.7370010085949033] [-1.8960509872192766:2.4114952364390652] [-2.6279587777024624:2.8901494313797191] [-1.8285382555515248:2.5147159462266804] [-5.0251079609516474:1.4929305567613367] [-6.7590667636153698:0.89781580822635865] [-0.60071313379441582:1.6646880911082533] [-1.7108545693193347:5.1645145268185502] [-3.2538381583806086:3.4059569119318747] [-1.4904700487235527:3.9336835097387279] [-2.5629115982599027:2.3551668272178805] [-2.2388125708296065:2.4385684781779911] [-2.9264246327437311:4.7232166879096367] [-2.4056190244250981:2.8338962341204663] [-3.2030225651808935:2.8053787623874289] [-2.3563919385359573:3.385676130053151] [-4.2307267117702825:2.0481733422137252] [-12.024811563233722:0.63620575677279756] [-0.70591536200627347:1.4166004224044819] [-1.2450915609865201:5.582169069453915] [-3.6098897043397975:2.6576181683431197] [-1.441996271093509:5.841518984666731] [-3.9693717295353586:1.9564176355795488] [-1.188533845864433:1.5941395866965244] [-1.7280305257768092:3.5503849480848695] [-1.8882219998020033:1.933919665333552] [-2.4302272603295854:1.9230692692759679] [-1.7753362626343236:2.1073726803841999] [-4.4799076015825818:1.0976356287508851] [-8.5641122015114206:0.74933086526930526] [-0.57648532448041279:1.7346495349230442] [-1.0904596989494661:9.0370311633892779] [-2.3735235577259339:4.9705696811779081] [-1.3967516849267338:5.6456063969342551] [-2.486018770940353:2.593228133570924] [-3.0878985674380099:2.2693315325006909] [-3.188107683090033:3.2448490232382254] [-2.1723331998222002:3.298968939614503] [-3.0165370363236286:2.4670535307440264] [-2.1494342033313236:3.1200965167643333] [-3.1507557343206738:2.1591406214519537] [-5.9457985178342474:0.63193407265624102] [-0.74197213430392883:1.3477595097799222] [-1.0334158926240067:6.6774883284270432] [-4.2966429407522826:2.8886990477870658] [-1.3229313902153879:3.9004225690395402] [-3.769507818926356:1.7554928184967511] [-1.5121182954775305:2.5097960464923244] [-1.6188633204159539:3.2548416604081196] [-2.3597480504144879:2.8202842911282948] [-2.7096905315152422:2.3590749081302396] [-2.3611837850401689:2.1110475409022764] [-4.2939828330598164:1.5499689614125993] [-7.2178854558431551:0.74311324021625336] [-0.61805143607931312:1.6179883123377148] [-1.2876294170658145:7.8089504209842762] [-2.9712501531015487:5.8446655570374135] [-1.4728079533821381:4.9206565101873574] [-2.8953474588867114:2.3656358596714542] [-2.7852630076990859:2.4701327818919743] [-2.8237119248018563:4.2448585125024199] [-2.2931406310910196:2.9049682453098167] [-2.6165005398391377:2.5092646335184536] [-2.4375640769358071:2.9735215769575016] [-3.5061998805155881:1.7459604946664051] [-4.7188024707448148:0.69533644380721094] [-0.55918187182864032:1.7883269297161235] [-1.1295409422013791:5.3402677554889939] [-3.5091379595498737:2.4795768943071304] [-1.4781715137976432:4.3332043657742458] [-3.5774785637184521:1.726567999560557] [-3.4236136110707256:3.3138933193552367] [-1.6601913899565808:1.8833146356782318] [-2.5581038050120757:3.0744428729167361] [-3.1569413643552608:2.7778539906980551] [-2.6541033037955724:2.9873332562867261] [-5.2287771167101811:1.4807359440219865] [-3.7228675722440889:0.86962560393246269] [-0.46459336471321028:2.1524198922156321] [-2.0815700586855472:4.5216969273038305] [-2.5566477655721007:2.9071318626643166] [-1.381130217073669:4.9349324467921889] [-2.7094202088545392:2.4470291482651936] [-2.5809154925664122:2.5095950053621943] [-2.5271719427290811:5.1540900604735631] [-2.4350542009017335:4.1312759521883162] [-3.7792208896396731:3.0037334421615318] [-2.8129561124881608:3.4656634504659456] [-4.161154623034383:1.3682043142726927] [-5.793671733302701:0.8736572702761366] [-0.68104022603199121:1.4683420476150741] [-1.2868393227178589:6.1373195458374532] [-4.2429659341784944:3.1098687432604271] [-1.0578321562952167:8.6119337675048637] [-2.1667280383367009:2.4483159140054269] [-2.5749823175953557:2.8481599565641407] [-2.7308877885497158:2.7662021321502754] [-2.8843018805180298:3.1596059106283589] [-3.2043428792124127:2.9786678586826905] [-3.0156774899021235:3.05776983072594] [-4.7330585862283394:1.4931532642339782] [-6.8963496447039727:0.8708937649148607] [-0.56264380147415416:1.77732341026415] [-1.2703786413750036:6.2891224990766679] [-3.6907724157442217:2.9416908509393171] [-1.5162284352637909:5.7139387335020153] [-2.2182598869910706:2.9553266379475143] [-3.6446109425331286:3.1721399821612746] [-1.8668004952794945:2.427013474922517] [-2.7774160689109371:2.7978292129808291] [-3.276933483717555:3.1106453952342292] [-2.9918140030502598:2.759145855305555] [-6.367312245534861:1.5154540947342634] [-5.3279186465550579:0.97391622378852671] [-0.49648625302197297:2.0141544582823223] [-2.0097182833129237:5.126425800110705] [-3.5162488594047057:3.6954603613737609] [-1.3714178210888308:6.8287303833227071] [-2.331557018881623:3.0893403774364518] [-3.0047499991511142:2.7864863457086759] [-2.8866692867560868:3.1423982430447945] [-2.6701770252374009:2.9583912606841225] [-3.7323278914940672:2.9460703750976687] [-2.7189536255349847:3.3042817087841749] [-2.8499456270199426:2.2477980561817459] [-5.7037294464436208:0.62081084693380406] [-0.77877993999964823:1.28405978202323] [-1.1617310975307684:6.8216305610380887] [-4.0073965215668625:3.1906207907964812] [-1.348321406429726:4.5103411874717541] [-3.7069979847554415:1.7131991980446024] [-3.1777123515954675:2.5677002836839526] [-2.442958191199518:4.3675322842924507] [-2.153483619960757:3.4946991373385834] [-3.0384275685828901:3.1297211873027013] [-2.4013696169234162:3.0119190639744882] [-4.3375906751037743:1.6419802516559012] [-7.0157321783870099:0.78181548350492691] [-0.65640548992421088:1.5234485624360414] [-1.2067107618511455:8.0993089086950167] [-4.6039035428009596:5.7292093551723395] [-1.1619750010068763:9.6115799005160731] [-2.8527442076657432:2.2798482428980451] [-2.7359031067298014:2.5070150440298629] [-2.5971906005507415:4.2016799672191123] [-2.4262807440889222:3.1497174886592618] [-2.809084920055239:3.517396129878164] [-2.2709985639399397:3.300909139426389] [-3.8741430195713691:1.6380285139025825] [-5.7642766420386913:0.72742757699774951] [-0.63544117663168942:1.5737097890019178] [-1.1672166714286472:7.0947964139048896] [-2.8010001164742722:5.1584441479656817] [-1.2143660828239233:5.7399253028078299] [-2.7541597787757861:2.2597042908866589] [-3.3768540657974446:2.993490650276899] [-2.8621977470558431:3.4956556327385391] [-2.3207969507038095:3.2557126365986866] [-3.2665083487219859:2.8292777761285084] [-2.2342462785968134:3.1500993587895456] [-2.5962694595732945:1.827039270102659] [-6.3403756726828826:0.68142910981551053] [-0.74926864926535186:1.3346347815039084] [-1.0503091345807931:7.6613988224312468] [-4.7744127673545353:4.3635387737459101] [-1.3967805933498338:4.6522085029204145] [-4.1148212474350547:1.6402304506102965] [-0.78965648992406323:1.3628671066125659] [-0.81312868285339968:1.3637324394462957] [-0.86900306250664061:0.83758873722910165] [-0.999111311656106:0.8584326331488541] [-1.6553194507643945:1.4953407891069808] [-0.86917635946226124:0.8265165217147411] [-1.4864099278719907:1.3455753884385753] [-0.85954624963410564:0.88132303942603463] [-1.5347350597721288:1.3877117322858281] [-0.64228280311079033:0.70636321802668878] [-1.3751200467748903:1.2044038081070674] [-0.85221197705945606:0.67436315011241243] [-1.4527677463853503:1.1881358507831747] [-0.8146538545738583:0.70924088219180192] [-1.235656280296799:1.1850135538384015] [-0.88846152519979571:0.78177469887410234] [-1.0448976600374826:0.83048665112834497] [-0.88086089706001791:0.81882376886347907] [-0.77051894149378208:0.73141903777569628] [-1.8218375219114449:1.4380466313735383] [-1.1142373570411979:1.1477161081849949] [-1.0117193871717975:1.266824591721835] [-1.2889170592097836:1.1163921844320639] [-1.166515670661314:5.0229227714457458] [-2.3545950070148587:0.4247014866764201] [-1.2182284391960014:1.3885127496936955] [-1.5606497489859381:3.9005030002098957] [-2.2719899015192215:3.1821426784852345] [-3.5078892772365258:2.8968821717099225] [-2.5062498863996505:4.3255334119448356] [-3.4537939313743631:2.3914631191795546] [-4.8133516480259093:1.7844011325989328] [-5.2827416550078414:0.90525274528382171] [-0.54532200881173543:1.8337789119845613] [-1.7610008856605928:5.1412499152790962] [-2.5440570833378313:3.4945293245156521] [-1.7217723563796536:4.7896723399037988] [-3.5492721058081331:2.5053783507136704] [-2.7583398426424681:2.8514218157823876] [-2.95177227559827:3.5640122556987825] [-2.7159094652493909:2.6518297070992918] [-2.580448993187586:4.327779937607712] [-2.9738814169470804:2.9127139615866966] [-3.461020309584077:1.5941040612246722] [-4.8713561320990975:1.1734136707694902] [-0.55571893022621111:1.799470821684874] [-1.1342677233975005:5.9712147891880125] [-3.8420225847748406:2.3681197232557154] [-1.4749618535122599:4.5035704190640891] [-2.5890617734990213:2.0014256944662714] [-1.7288313400236184:4.2351830244436277] [-4.0289033114348332:2.8771223724426118] [-3.6963584411695556:2.4611867262989202] [-3.5797815554175494:3.4503730100894852] [-3.6507382637588166:2.6050582545557428] [-5.1215834457968814:1.42981311755686] [-4.6378667104457616:1.1457207521599451] [-0.65640548992420356:1.5234485624360248] [-1.5842830685787648:5.7963471733833911] [-2.9553607808663163:4.5377175503079323] [-1.9814692389982667:3.6269076167147953] [-2.3182317450929357:3.2357708618309391] [-1.4522270865471714:1.324537459558786] [-1.8627065212025065:4.329209768081876] [-1.6374879044199722:2.7814123294380724] [-2.6023476781581305:2.2359286749064347] [-1.5697534139721876:2.4436755137808972] [-5.3901839678606267:1.3532423624147507] [-4.9536652558225089:0.9121065953451909] [-0.54185297928756981:1.8455190581675645] [-1.5007317087619352:6.6865162553837942] [-2.3163279850646701:3.1405365495564279] [-1.1890774810268581:6.1689198804562615] [-2.7409083361743156:1.9891656123995918] [-2.401394186253984:2.0870470950100839] [-3.3954494332795515:3.8425063267055011] [-1.9069139118322671:3.6160553807062907] [-3.0186479458638105:2.7269101437302687] [-2.0553655477737967:3.4083464561949115] [-2.7900170737195373:2.1985690166402376] [-11.504417844514585:0.57028255847328613] [-0.68812058083948136:1.4532336742204433] [-1.0478807688819445:5.0859227681733632] [-3.4233462465864375:2.8310432135994836] [-1.1502777265344537:9.52482914858928] [-3.9031288039257954:1.7972347597839498] [-1.2998839648743685:1.6600853245913822] [-1.9001073663486303:3.9095485374749903] [-1.7450280681544159:2.3937552699637297] [-2.2831666075590134:2.1711105932206505] [-1.7692720208476584:1.9249696097524047] [-4.287843228020316:1.2159701522979462] [-5.3572759787948048:0.74838734028403531] [-0.67045611388927173:1.4915219345217856] [-1.4695816776946673:5.8269310510135268] [-2.3727338017342774:3.0683180930299403] [-1.3392801326189399:6.5914087595182895] [-2.8849910922780388:1.9441296721332704] [-2.5695507498875694:2.4968916473337655] [-2.8007915739474454:3.6433074307043429] [-2.1501313633437995:3.8277741457444039] [-2.8349973407410065:2.5663866854363722] [-2.1320462981212338:3.1816856065711923] [-2.9838220362348009:2.2189398196557906] [-8.019209990876119:0.59369832097260578] [-0.68104022603199177:1.4683420476150746] [-1.059305446095288:6.2098247059786793] [-3.9889061581656793:2.5170001932569468] [-1.2290037160960721:5.5913652560300617] [-4.1952289526503463:1.7190494779893888] [-1.4457113235405563:1.5655117543259873] [-2.3105043943945578:3.8804250012670161] [-1.8694632234381197:2.2029633744997632] [-2.2282964261488147:2.2847428124473246] [-1.8711234458775254:2.5112806647426131] [-4.1402450900678565:1.4105351353726827] [-4.8648567623563546:0.7045506998063833] [-0.67750748589414511:1.4759984514122448] [-1.4078396155673454:5.759542345141492] [-1.9910216848590201:3.4390666593889407] [-1.3980588590127705:3.9978008604180935] [-3.2943910785424602:1.7171436322413258] [-2.4191481459073225:2.2339817379657489] [-3.1369727973984585:4.1239125775337406] [-1.955020669085229:3.7156153662788598] [-2.8283088851318183:2.5573648021110076] [-2.0144860843672996:3.7179864952536108] [-3.2251319253893311:2.1904263400609083] [-8.1873289889364109:0.56849969192255956] [-0.71307403281228143:1.4023789311974868] [-1.012950088189212:4.9838431851676468] [-3.4338047281691506:2.7224586755948907] [-1.1167360017037904:7.680101490925674] [-4.3736970259072621:1.6461453131618682] [-1.7340466972436195:1.7194747381427651] [-2.3715210752966307:3.7370010085949055] [-1.8960509872192772:2.4114952364390643] [-2.6279587777024638:2.8901494313797191] [-1.8285382555515248:2.5147159462266808] [-5.0251079609516482:1.4929305567613365] [-6.7590667636153707:0.89781580822635887] [-0.60071313379441571:1.6646880911082533] [-1.7108545693193344:5.1645145268185502] [-3.2538381583806073:3.4059569119318751] [-1.4904700487235534:3.9336835097387279] [-2.5629115982599031:2.355166827217881] [-2.2388125708296065:2.4385684781779911] [-2.9264246327437302:4.7232166879096349] [-2.4056190244250977:2.8338962341204663] [-3.2030225651808921:2.8053787623874298] [-2.3563919385359573:3.3856761300531515] [-4.2307267117702825:2.0481733422137256] [-12.024811563233719:0.63620575677279745] [-0.70591536200627381:1.4166004224044819] [-1.2450915609865203:5.5821690694539177] [-3.6098897043397975:2.6576181683431193] [-1.4419962710935093:5.8415189846667293] [-3.9693717295353586:1.9564176355795497] [-1.1885338458644326:1.5941395866965244] [-1.7280305257768092:3.5503849480848704] [-1.8882219998020031:1.933919665333552] [-2.4302272603295845:1.9230692692759679] [-1.7753362626343236:2.1073726803841999] [-4.4799076015825818:1.0976356287508851] [-8.5641122015114206:0.74933086526930504] [-0.57648532448041301:1.7346495349230444] [-1.0904596989494661:9.0370311633892779] [-2.3735235577259348:4.970569681177909] [-1.3967516849267334:5.6456063969342551] [-2.4860187709403525:2.5932281335709231] [-3.0878985674380099:2.2693315325006909] [-3.1881076830900339:3.2448490232382272] [-2.1723331998222002:3.2989689396145021] [-3.0165370363236299:2.4670535307440269] [-2.1494342033313227:3.1200965167643324] [-3.1507557343206729:2.1591406214519537] [-5.9457985178342456:0.63193407265624091] [-0.74197213430392905:1.3477595097799218] [-1.0334158926240069:6.6774883284270405] [-4.2966429407522826:2.8886990477870671] [-1.3229313902153881:3.9004225690395407] [-3.7695078189263564:1.7554928184967509] [-1.5121182954775301:2.5097960464923239] [-1.6188633204159542:3.2548416604081205] [-2.3597480504144874:2.8202842911282939] [-2.7096905315152413:2.3590749081302396] [-2.3611837850401693:2.1110475409022764] [-4.2939828330598173:1.5499689614125993] [-7.2178854558431533:0.74311324021625358] [-0.61805143607931323:1.6179883123377143] [-1.287629417065814:7.8089504209842753] [-2.9712501531015478:5.8446655570374118] [-1.4728079533821385:4.9206565101873583] [-2.8953474588867119:2.3656358596714533] [-2.7852630076990854:2.4701327818919729] [-2.8237119248018572:4.2448585125024216] [-2.2931406310910192:2.9049682453098162] [-2.6165005398391377:2.5092646335184532] [-2.4375640769358071:2.9735215769575007] [-3.5061998805155881:1.7459604946664042] [-4.7188024707448131:0.69533644380721116] [-0.55918187182864054:1.7883269297161237] [-1.1295409422013791:5.3402677554889921] [-3.509137959549872:2.4795768943071308] [-1.4781715137976426:4.3332043657742458] [-3.5774785637184516:1.7265679995605563] [-3.4236136110707251:3.3138933193552362] [-1.6601913899565814:1.8833146356782315] [-2.5581038050120761:3.0744428729167375] [-3.15694136435526:2.7778539906980546] [-2.6541033037955719:2.987333256286727] [-5.2287771167101829:1.4807359440219861] [-3.7228675722440885:0.86962560393246302] [-0.46459336471321017:2.1524198922156317] [-2.0815700586855472:4.5216969273038297] [-2.5566477655721003:2.907131862664317] [-1.3811302170736697:4.9349324467921889] [-2.7094202088545392:2.4470291482651927] [-2.5809154925664122:2.5095950053621952] [-2.5271719427290806:5.1540900604735622] [-2.435054200901734:4.1312759521883144] [-3.7792208896396717:3.0037334421615309] [-2.8129561124881621:3.4656634504659456] [-4.1611546230343848:1.368204314272693] [-5.793671733302701:0.87365727027613627] [-0.68104022603199155:1.4683420476150741] [-1.2868393227178585:6.1373195458374505] [-4.2429659341784935:3.1098687432604262] [-1.0578321562952171:8.6119337675048619] [-2.1667280383367014:2.4483159140054269] [-2.5749823175953548:2.848159956564142] [-2.7308877885497163:2.7662021321502746] [-2.8843018805180289:3.1596059106283598] [-3.2043428792124122:2.97866785868269] [-3.0156774899021226:3.0577698307259413] [-4.7330585862283394:1.4931532642339782] [-6.8963496447039736:0.8708937649148607] [-0.56264380147415416:1.7773234102641504] [-1.2703786413750033:6.289122499076667] [-3.6907724157442234:2.9416908509393176] [-1.5162284352637909:5.7139387335020135] [-2.2182598869910706:2.9553266379475138] [-3.6446109425331286:3.1721399821612737] [-1.8668004952794943:2.4270134749225165] [-2.7774160689109362:2.7978292129808282] [-3.2769334837175532:3.1106453952342292] [-2.9918140030502607:2.7591458553055559] [-6.3673122455348592:1.5154540947342634] [-5.3279186465550561:0.97391622378852671] [-0.49648625302197297:2.0141544582823223] [-2.0097182833129237:5.1264258001107033] [-3.5162488594047061:3.69546036137376] [-1.371417821088831:6.8287303833227071] [-2.3315570188816226:3.0893403774364532] [-3.0047499991511133:2.7864863457086773] [-2.8866692867560855:3.1423982430447936] [-2.6701770252374017:2.9583912606841216] [-3.7323278914940694:2.9460703750976687] [-2.7189536255349833:3.3042817087841754] [-2.8499456270199435:2.2477980561817459] [-5.7037294464436226:0.62081084693380417] [-0.77877993999964845:1.2840597820232296] [-1.1617310975307682:6.8216305610380861] [-4.0073965215668643:3.1906207907964821] [-1.348321406429726:4.5103411874717549] [-3.706997984755442:1.7131991980446024] [-3.1777123515954675:2.5677002836839518] [-2.4429581911995184:4.3675322842924498] [-2.1534836199607565:3.4946991373385821] [-3.0384275685828901:3.1297211873027022] [-2.4013696169234158:3.0119190639744877] [-4.3375906751037761:1.6419802516559012] [-7.015732178387009:0.78181548350492713] [-0.65640548992421088:1.5234485624360419] [-1.2067107618511457:8.0993089086950167] [-4.6039035428009578:5.7292093551723369] [-1.1619750010068763:9.6115799005160767] [-2.8527442076657432:2.2798482428980451] [-2.7359031067298023:2.5070150440298629] [-2.5971906005507419:4.2016799672191132] [-2.4262807440889227:3.1497174886592609] [-2.8090849200552377:3.5173961298781631] [-2.2709985639399393:3.3009091394263899] [-3.87414301957137:1.6380285139025825] [-5.7642766420386886:0.7274275769977494] [-0.63544117663168953:1.5737097890019183] [-1.1672166714286467:7.0947964139048914] [-2.801000116474273:5.1584441479656817] [-1.2143660828239238:5.739925302807829] [-2.7541597787757861:2.2597042908866585] [-3.3768540657974451:2.9934906502769003] [-2.8621977470558426:3.4956556327385382] [-2.3207969507038104:3.2557126365986866] [-3.2665083487219877:2.8292777761285097] [-2.2342462785968134:3.1500993587895447] [-2.5962694595732949:1.8270392701026585] [-6.3403756726828844:0.6814291098155103] [-0.74926864926535208:1.3346347815039086] [-1.0503091345807931:7.6613988224312468] [-4.7744127673545362:4.3635387737459101] [-1.3967805933498336:4.6522085029204137] [-4.1148212474350538:1.6402304506102965] [0.26141089206723478:3.0009445127706216] [0.31194861323946499:3.1809268774037331] [-0.36744453578307618:2.6496501901937091] [0.51571629201387803:3.5543367000262869] [-0.93850541604779569:3.9591711874622755] [0.473872916635034:3.3126254440992087] [-0.50317030782795524:3.8220392340926281] [0.35638992878117559:3.3880732617991756] [-0.6114757843882942:3.93626750207306] [0.39311689804921524:2.0672234528789688] [-0.23352103406409841:3.7965432868222804] [0.54177251037754937:3.0684157267557093] [-0.59636298902155738:3.484711085784495] [0.40836022038585146:3.4152282565126013] [-0.13657187811494381:3.7716362304008508] [0.22933127216561555:2.6167709865340738] [0.037462142901593505:3.6736038344730941] [-0.014443900780528249:2.5370617151303567] [0.33409041706262499:2.6673882766485413] [-0.49954726035931252:3.6468808444120207] [-0.039701393679920031:4.1686022185079779] [-0.20955030840926969:4.1937409347793233] [-0.23871250197793856:3.6949656028372155]
tree_sizes=327 325 323 325 325 323 321 325 323 321 322 325 323 323 324 324 324 327 327 325 326 326 326 328 324 324 328 324 326 417 325 326 413 415 415 325 412 415 412 414 502 500 416 503 504 415 503 506 412 414 412 504 415 592 506 505 503 502 501 593 500 594 686 501 502 505 594 597 683 502 683 683 593 591 594 678 593 590 685 594 592 773 683 682 683 776 774 683 860 678 773 771 680 863 860 680 862 768 857 864 775 865 769 679 773 1042 775 1040 949 952 946 946 866 952 950 862 948 948 943 1128 1130 1045 947 951 1133 1132 944 950 858 1045 1044 1136 1036 950 1042 1044 1040 1041 1224 1044 1043 950 1034 1041 1124 952 1046 1124 1042 1134 1132 1040 1128 1041 1133 1041 1216 1223 1132 1131 1223 950 1219 1041 954 1040 955 1132 1041 1217 1030 1132 1041 1043 1213 1218 1223 1220 947 1125 1047 1310 1041 1217 1132 1037 1126 1130 1130 1041 1125 1218 1043 1206 1226 1041 1128 1217 1128 1128

Tree=0
num_leaves=2
num_cat=0
split_feature=304
split_gain=36.1582
threshold=1.0000000180025095e-35
decision_type=2
left_child=-1
right_child=-2
leaf_value=0.01307506437692958 -0.013312753874230148
leaf_weight=239 206
leaf_count=239 206
internal_value=2.24355e-09
internal_weight=0
internal_count=445
is_linear=0
shrinkage=1


Tree=1
num_leaves=2
num_cat=0
split_feature=304
split_gain=35.0024
threshold=1.0000000180025095e-35
decision_type=2
left_child=-1
right_child=-2
leaf_value=0.012850529082002333 -0.013112125674858078
leaf_weight=239 206
leaf_count=239 206
internal_value=0
internal_weight=0
internal_count=445
is_linear=0
shrinkage=0.132801


Tree=2
num_leaves=2
num_cat=0
split_feature=2
split_gain=33.8836
threshold=1.0000000180025095e-35
decision_type=2
left_child=-1
right_child=-2
leaf_value=0.012629852024941058 -0.012914518062615442
leaf_weight=239 206
leaf_count=239 206
internal_value=0
internal_weight=0
internal_count=445
is_linear=0
shrinkage=0.132801


Tree=3
num_leaves=2
num_cat=0
split_feature=304
split_gain=32.8005
threshold=1.0000000180025095e-35
decision_type=2
left_child=-1
right_child=-2
leaf_value=0.012412964504497286 -0.012719888718344933
leaf_weight=239 206
leaf_count=239 206
internal_value=0
internal_weight=0
internal_count=445
is_linear=0
shrinkage=0.132801


Tree=4
num_leaves=2
num_cat=0
split_feature=304
split_gain=31.7521
threshold=1.0000000180025095e-35
decision_type=2
left_child=-1
right_child=-2
leaf_value=0.012199801905067342 -0.012528192955476379
leaf_weight=239 206
leaf_count=239 206
internal_value=0
internal_weight=0
internal_count=445
is_linear=0
shrinkage=0.132801


Tree=5
num_leaves=2
num_cat=0
split_feature=2
split_gain=30.7371
threshold=1.0000000180025095e-35
decision_type=2
left_child=-1
right_child=-2
leaf_value=0.011990299743543794 -0.012339386101202643
leaf_weight=239 206
leaf_count=239 206
internal_value=0
internal_weight=0
internal_count=445
is_linear=0
shrinkage=0.132801


Tree=6
num_leaves=2
num_cat=0
split_feature=63
split_gain=28.1601
threshold=0.64279724818767736
decision_type=2
left_child=-1
right_child=-2
leaf_value=0.011481115093035803 -0.011806145567486154
leaf_weight=236 209
leaf_count=236 209
internal_value=0
internal_weight=0
internal_count=445
is_linear=0
shrinkage=0.132801


Tree=7
num_leaves=2
num_cat=0
split_feature=304
split_gain=28.8664
threshold=1.0000000180025095e-35
decision_type=2
left_child=-1
right_child=-2
leaf_value=0.011597273552198497 -0.011980610393310468
leaf_weight=239 206
leaf_count=239 206
internal_value=0
internal_weight=0
internal_count=445
is_linear=0
shrinkage=0.132801


Tree=8
num_leaves=2
num_cat=0
split_feature=2
split_gain=27.9437
threshold=1.0000000180025095e-35
decision_type=2
left_child=-1
right_child=-2
leaf_value=0.011398118144320891 -0.011800055578505558
leaf_weight=239 206
leaf_count=239 206
internal_value=0
internal_weight=0
internal_count=445
is_linear=0
shrinkage=0.132801


Tree=9
num_leaves=2
num_cat=0
split_feature=39
split_gain=26.8342
threshold=0.52917100707237141
decision_type=2
left_child=-1
right_child=-2
leaf_value=0.011163213545894422 -0.011569817135897179
leaf_weight=238 207
leaf_count=238 207
internal_value=0
internal_weight=0
internal_count=445
is_linear=0
shrinkage=0.132801


Tree=10
num_leaves=2
num_cat=0
split_feature=39
split_gain=25.9764
threshold=0.52917100707237141
decision_type=2
left_child=-1
right_child=-2
leaf_value=0.010972210684254274 -0.011394703020612891
leaf_weight=238 207
leaf_count=238 207
internal_value=0
internal_weight=0
internal_count=445
is_linear=0
shrinkage=0.132801


Tree=11
num_leaves=2
num_cat=0
split_feature=304
split_gain=25.3633
threshold=1.0000000180025095e-35
decision_type=2
left_child=-1
right_child=-2
leaf_value=0.01082550045104737 -0.011276133883614321
leaf_weight=239 206
leaf_count=239 206
internal_value=0
internal_weight=0
internal_count=445
is_linear=0
shrinkage=0.132801


Tree=12
num_leaves=2
num_cat=0
split_feature=341
split_gain=24.3425
threshold=0.52917100707237152
decision_type=2
left_child=-1
right_child=-2
leaf_value=0.010599251889304042 -0.011053187049060926
leaf_weight=238 207
leaf_count=238 207
internal_value=0
internal_weight=0
internal_count=445
is_linear=0
shrinkage=0.132801


Tree=13
num_leaves=2
num_cat=0
split_feature=341
split_gain=23.5644
threshold=0.52917100707237152
decision_type=2
left_child=-1
right_child=-2
leaf_value=0.010417898567632443 -0.010885893335543776
leaf_weight=238 207
leaf_count=238 207
internal_value=0
internal_weight=0
internal_count=445
is_linear=0
shrinkage=0.132801


Tree=14
num_leaves=2
num_cat=0
split_feature=2
split_gain=23.0216
threshold=1.0000000180025095e-35
decision_type=2
left_child=-1
right_child=-2
leaf_value=0.010281766083313184 -0.010775561207695185
leaf_weight=239 206
leaf_count=239 206
internal_value=0
internal_weight=0
internal_count=445
is_linear=0
shrinkage=0.132801


Tree=15
num_leaves=2
num_cat=0
split_feature=2
split_gain=22.2859
threshold=1.0000000180025095e-35
decision_type=2
left_child=-1
right_child=-2
leaf_value=0.010105201011151931 -0.010613167311592632
leaf_weight=239 206
leaf_count=239 206
internal_value=0
internal_weight=0
internal_count=445
is_linear=0
shrinkage=0.132801


Tree=16
num_leaves=2
num_cat=0
split_feature=437
split_gain=21.3827
threshold=0.44118293755078758
decision_type=2
left_child=-1
right_child=-2
leaf_value=0.0098813915956412895 -0.010413209564787645
leaf_weight=240 205
leaf_count=240 205
internal_value=0
internal_weight=0
internal_count=445
is_linear=0
shrinkage=0.132801


Tree=17
num_leaves=2
num_cat=0
split_feature=304
split_gain=20.8903
threshold=1.0000000180025095e-35
decision_type=2
left_child=-1
right_child=-2
leaf_value=0.0097619790927318695 -0.010297772597259737
leaf_weight=239 206
leaf_count=239 206
internal_value=0
internal_weight=0
internal_count=445
is_linear=0
shrinkage=0.132801


Tree=18
num_leaves=2
num_cat=0
split_feature=304
split_gain=20.2227
threshold=1.0000000180025095e-35
decision_type=2
left_child=-1
right_child=-2
leaf_value=0.0095943406746093959 -0.010142579278469784
leaf_weight=239 206
leaf_count=239 206
internal_value=0
internal_weight=0
internal_count=445
is_linear=0
shrinkage=0.132801


Tree=19
num_leaves=2
num_cat=0
split_feature=135
split_gain=19.3977
threshold=0.44118293755078769
decision_type=2
left_child=-1
right_child=-2
leaf_value=0.0093803337389432861 -0.0099502312687635725
leaf_weight=240 205
leaf_count=240 205
internal_value=0
internal_weight=0
internal_count=445
is_linear=0
shrinkage=0.132801


Tree=20
num_leaves=2
num_cat=0
split_feature=2
split_gain=18.9565
threshold=1.0000000180025095e-35
decision_type=2
left_child=-1
right_child=-2
leaf_value=0.0092684962496736197 -0.0098411832559896148
leaf_weight=239 206
leaf_count=239 206
internal_value=0
internal_weight=0
internal_count=445
is_linear=0
shrinkage=0.132801


Tree=21
num_leaves=2
num_cat=0
split_feature=2
split_gain=18.3507
threshold=1.0000000180025095e-35
decision_type=2
left_child=-1
right_child=-2
leaf_value=0.0091093319974273855 -0.0096928715666684557
leaf_weight=239 206
leaf_count=239 206
internal_value=0
internal_weight=0
internal_count=445
is_linear=0
shrinkage=0.132801


Tree=22
num_leaves=2
num_cat=0
split_feature=2
split_gain=17.7643
threshold=1.0000000180025095e-35
decision_type=2
left_child=-1
right_child=-2
leaf_value=0.0089529012981752823 -0.0095467943458024691
leaf_weight=239 206
leaf_count=239 206
internal_value=0
internal_weight=0
internal_count=445
is_linear=0
shrinkage=0.132801


Tree=23
num_leaves=2
num_cat=0
split_feature=304
split_gain=17.1966
threshold=1.0000000180025095e-35
decision_type=2
left_child=-1
right_child=-2
leaf_value=0.0087991564293160331 -0.0094029188732276912
leaf_weight=239 206
leaf_count=239 206
internal_value=0
internal_weight=0
internal_count=445
is_linear=0
shrinkage=0.132801


Tree=24
num_leaves=2
num_cat=0
split_feature=39
split_gain=16.4936
threshold=0.52917100707237141
decision_type=2
left_child=-1
right_child=-2
leaf_value=0.0086118894070648672 -0.0092145703479161976
leaf_weight=238 207
leaf_count=238 207
internal_value=0
internal_weight=0
internal_count=445
is_linear=0
shrinkage=0.132801


Tree=25
num_leaves=2
num_cat=0
split_feature=2
split_gain=16.12
threshold=1.0000000180025095e-35
decision_type=2
left_child=-1
right_child=-2
leaf_value=0.0085014445481633519 -0.0091223427438673257
leaf_weight=239 206
leaf_count=239 206
internal_value=0
internal_weight=0
internal_count=445
is_linear=0
shrinkage=0.132801


Tree=26
num_leaves=2
num_cat=0
split_feature=304
split_gain=15.6049
threshold=1.0000000180025095e-35
decision_type=2
left_child=-1
right_child=-2
leaf_value=0.0083554522313328203 -0.0089848635190349843
leaf_weight=239 206
leaf_count=239 206
internal_value=0
internal_weight=0
internal_count=445
is_linear=0
shrinkage=0.132801


Tree=27
num_leaves=2
num_cat=0
split_feature=341
split_gain=14.962
threshold=0.52917100707237152
decision_type=2
left_child=-1
right_child=-2
leaf_value=0.0081761180134085985 -0.0088036015616995492
leaf_weight=238 207
leaf_count=238 207
internal_value=0
internal_weight=0
internal_count=445
is_linear=0
shrinkage=0.132801


Tree=28
num_leaves=2
num_cat=0
split_feature=304
split_gain=14.628
threshold=1.0000000180025095e-35
decision_type=2
left_child=-1
right_child=-2
leaf_value=0.0080727825362122453 -0.008716781393064749
leaf_weight=239 206
leaf_count=239 206
internal_value=0
internal_weight=0
internal_count=445
is_linear=0
shrinkage=0.132801


Tree=29
num_leaves=3
num_cat=0
split_feature=139 529
split_gain=13.305 0.189618
threshold=1.0000000180025095e-35 -0.92041501077536469
decision_type=2 2
left_child=-1 -2
right_child=1 -3
leaf_value=-0.0083166807346249007 -8.3810977781120324e-05 0.0078553483253021739
leaf_weight=209 20 216
leaf_count=209 20 216
internal_value=0 0.00769621
internal_weight=0 236
internal_count=445 236
is_linear=0
shrinkage=0.132801


Tree=30
num_leaves=2
num_cat=0
split_feature=341
split_gain=13.6151
threshold=0.52917100707237152
decision_type=2
left_child=-1
right_child=-2
leaf_value=0.0077809646352365444 -0.0084173654946780082
leaf_weight=238 207
leaf_count=238 207
internal_value=0
internal_weight=0
internal_count=445
is_linear=0
shrinkage=0.132801


Tree=31
num_leaves=2
num_cat=0
split_feature=2
split_gain=13.3158
threshold=1.0000000180025095e-35
decision_type=2
left_child=-1
right_child=-2
leaf_value=0.0076840602960120425 -0.0083356321643215676
leaf_weight=239 206
leaf_count=239 206
internal_value=0
internal_weight=0
internal_count=445
is_linear=0
shrinkage=0.132801


Tree=32
num_leaves=3
num_cat=0
split_feature=63 11
split_gain=12.2776 0.00278257
threshold=0.64279724818767736 -1.0795959071815526
decision_type=2 2
left_child=1 -1
right_child=-2 -3
leaf_value=4.5760672044257567e-05 -0.0080061581812535271 0.0074208873460301196
leaf_weight=21 209 215
leaf_count=21 209 215
internal_value=0 0.00737686
internal_weight=0 236
internal_count=445 236
is_linear=0
shrinkage=0.132801


Tree=33
num_leaves=3
num_cat=0
split_feature=2 313
split_gain=12.5218 0.00349934
threshold=1.0000000180025095e-35 -1.0795959071815526
decision_type=2 2
left_child=1 -1
right_child=-2 -3
leaf_value=4.5682370325033165e-05 -0.0080927378918943752 0.007487224102017599
leaf_weight=21 206 218
leaf_count=21 206 218
internal_value=0 0.00744245
internal_weight=0 239
internal_count=445 239
is_linear=0
shrinkage=0.132801


Tree=34
num_leaves=3
num_cat=0
split_feature=2 313
split_gain=12.1387 0.00252039
threshold=1.0000000180025095e-35 -1.0795959071815526
decision_type=2 2
left_child=1 -1
right_child=-2 -3
leaf_value=4.5604254324615105e-05 -0.0079707756340903178 0.0073685982762969051
leaf_weight=21 206 218
leaf_count=21 206 218
internal_value=0 0.0073251
internal_weight=0 239
internal_count=445 239
is_linear=0
shrinkage=0.132801


Tree=35
num_leaves=2
num_cat=0
split_feature=135
split_gain=11.6533
threshold=0.44118293755078769
decision_type=2
left_child=-1
right_child=-2
leaf_value=0.0071692974460977462 -0.0078178590351538381
leaf_weight=240 205
leaf_count=240 205
internal_value=0
internal_weight=0
internal_count=445
is_linear=0
shrinkage=0.132801


Tree=36
num_leaves=3
num_cat=0
split_feature=135 313
split_gain=11.281 0.0161587
threshold=0.44118293755078769 -1.0795959071815526
decision_type=2 2
left_child=1 -1
right_child=-2 -3
leaf_value=3.326201001410268e-05 -0.0077005466958992869 0.0070970036343421875
leaf_weight=21 205 219
leaf_count=21 205 219
internal_value=0 0.00704573
internal_weight=0 240
internal_count=445 240
is_linear=0
shrinkage=0.132801


Tree=37
num_leaves=3
num_cat=0
split_feature=304 11
split_gain=11.0495 0.0154809
threshold=1.0000000180025095e-35 -1.0795959071815526
decision_type=2 2
left_child=1 -1
right_child=-2 -3
leaf_value=3.3205113297696628e-05 -0.007618959109229391 0.0070258210641798262
leaf_weight=21 206 218
leaf_count=21 206 218
internal_value=0 0.00697528
internal_weight=0 239
internal_count=445 239
is_linear=0
shrinkage=0.132801


Tree=38
num_leaves=3
num_cat=0
split_feature=135 11
split_gain=10.601 0.0139836
threshold=0.44118293755078769 -1.0795959071815526
decision_type=2 2
left_child=1 -1
right_child=-2 -3
leaf_value=3.3148295481437056e-05 -0.0074706673158208498 0.0068734057048569054
leaf_weight=21 205 219
leaf_count=21 205 219
internal_value=0 0.00682457
internal_weight=0 240
internal_count=445 240
is_linear=0
shrinkage=0.132801


Tree=39
num_leaves=3
num_cat=0
split_feature=341 313
split_gain=10.2759 0.0130348
threshold=0.52917100707237152 -1.0795959071815526
decision_type=2 2
left_child=1 -1
right_child=-2 -3
leaf_value=3.3091599050018242e-05 -0.0073505736879624179 0.0067715846008950384
leaf_weight=21 207 217
leaf_count=21 207 217
internal_value=0 0.00672381
internal_weight=0 238
internal_count=445 238
is_linear=0
shrinkage=0.132801


Tree=40
num_leaves=4
num_cat=0
split_feature=2 119 176
split_gain=10.0721 0.0226844 0.0311037
threshold=1.0000000180025095e-35 1.7347179124917702 0.96184808209045392
decision_type=2 2 2
left_child=1 2 -1
right_child=-2 -3 -4
leaf_value=0.0067681097471022928 -0.007281821966062872 2.2646500914315536e-05 2.0497384979516978e-05
leaf_weight=197 206 20 22
leaf_count=197 206 20 22
internal_value=0 0.00665236 0.00670496
internal_weight=0 239 219
internal_count=445 239 219
is_linear=0
shrinkage=0.132801


Tree=41
num_leaves=4
num_cat=0
split_feature=2 11 478
split_gain=9.7772 0.0235393 0.0329465
threshold=1.0000000180025095e-35 -1.0795959071815526 0.96184808209045347
decision_type=2 2 2
left_child=1 -1 -3
right_child=-2 2 -4
leaf_value=2.3105667557411828e-05 -0.0071720809101844009 0.0066810629533500584 2.412885773253676e-05
leaf_weight=21 206 193 25
leaf_count=21 206 193 25
internal_value=0 0.0065565 0.00661124
internal_weight=0 239 218
internal_count=445 239 218
is_linear=0
shrinkage=0.132801


Tree=42
num_leaves=3
num_cat=0
split_feature=304 313
split_gain=9.49351 0.0225332
threshold=1.0000000180025095e-35 -1.0795959071815526
decision_type=2 2
left_child=1 -1
right_child=-2 -3
leaf_value=2.3066158005595203e-05 -0.0070639934374797306 0.006517477761151344
leaf_weight=21 206 218
leaf_count=21 206 218
internal_value=0 0.00646377
internal_weight=0 239
internal_count=445 239
is_linear=0
shrinkage=0.132801


Tree=43
num_leaves=4
num_cat=0
split_feature=304 119 176
split_gain=9.20282 0.0399762 0.0410018
threshold=1.0000000180025095e-35 1.7347179124917702 0.96184808209045392
decision_type=2 2 2
left_child=1 2 -1
right_child=-2 -3 -4
leaf_value=0.0064963197576397855 -0.006957534977267886 5.4078679648202419e-06 9.273301443148806e-06
leaf_weight=197 206 20 22
leaf_count=197 206 20 22
internal_value=0 0.00636165 0.00642642
internal_weight=0 239 219
internal_count=445 239 219
is_linear=0
shrinkage=0.132801


Tree=44
num_leaves=4
num_cat=0
split_feature=441 195 11
split_gain=8.45346 0.113974 0.0640086
threshold=1.0000000180025095e-35 1.252993579992707 -1.0795959071815526
decision_type=2 2 2
left_child=-1 2 -2
right_child=1 -3 -4
leaf_value=-0.0066621814074777847 -1.6733513296587411e-05 -5.8070213786637805e-05 0.0063130967750954789
leaf_weight=209 20 22 194
leaf_count=209 20 22 194
internal_value=0 0.00610329 0.00622889
internal_weight=0 236 214
internal_count=445 236 214
is_linear=0
shrinkage=0.132801


Tree=45
num_leaves=3
num_cat=0
split_feature=135 529
split_gain=8.59695 0.0852832
threshold=0.44118293755078769 -0.92041501077536469
decision_type=2 2
left_child=1 -1
right_child=-2 -3
leaf_value=-3.438763652629571e-05 -0.0067243333724516562 0.0062501039683776575
leaf_weight=21 205 219
leaf_count=21 205 219
internal_value=0 0.00614881
internal_weight=0 240
internal_count=445 240
is_linear=0
shrinkage=0.132801


Tree=46
num_leaves=4
num_cat=0
split_feature=135 478 11
split_gain=8.33279 0.0532887 0.0499951
threshold=0.44118293755078769 0.96184808209045347 -1.0795959071815526
decision_type=2 2 2
left_child=1 2 -1
right_child=-2 -3 -4
leaf_value=-5.9520908461355305e-06 -0.0066234304252018386 1.2762908786436736e-06 0.0062091356261789188
leaf_weight=20 205 26 194
leaf_count=20 205 26 194
internal_value=0 0.00605057 0.00613571
internal_weight=0 240 214
internal_count=445 240 214
is_linear=0
shrinkage=0.132801


Tree=47
num_leaves=4
num_cat=0
split_feature=304 421 176
split_gain=8.18126 0.0597967 0.0565095
threshold=1.0000000180025095e-35 1.7347179124917702 0.96184808209045392
decision_type=2 2 2
left_child=1 2 -1
right_child=-2 -3 -4
leaf_value=0.0061642627765289048 -0.0065558789743005129 -1.6455847823790737e-05 -8.5910810832083996e-06
leaf_weight=197 206 20 22
leaf_count=197 206 20 22
internal_value=0 0.0060021 0.00608242
internal_weight=0 239 219
internal_count=445 239 219
is_linear=0
shrinkage=0.132801


Tree=48
num_leaves=3
num_cat=0
split_feature=39 119
split_gain=7.85216 0.057794
threshold=0.52917100707237141 1.7347179124917702
decision_type=2 2
left_child=1 -1
right_child=-2 -3
leaf_value=0.0059629814602524828 -0.0064187882463637522 -1.6429026564218247e-05
leaf_weight=218 207 20
leaf_count=218 207 20
internal_value=0 0.00588393
internal_weight=0 238
internal_count=445 238
is_linear=0
shrinkage=0.132801


Tree=49
num_leaves=3
num_cat=0
split_feature=135 227
split_gain=7.6132 0.101008
threshold=0.44118293755078769 -0.92041501077536469
decision_type=2 2
left_child=1 -1
right_child=-2 -3
leaf_value=-5.5611517382211218e-05 -0.0063293475087116613 0.0059010028720813956
leaf_weight=21 205 219
leaf_count=21 205 219
internal_value=0 0.00578497
internal_weight=0 240
internal_count=445 240
is_linear=0
shrinkage=0.132801


Tree=50
num_leaves=3
num_cat=0
split_feature=341 478
split_gain=7.37741 0.069403
threshold=0.52917100707237152 0.96184808209045347
decision_type=2 2
left_child=1 -1
right_child=-2 -3
leaf_value=0.0057968592785139304 -0.006227193388125208 -1.9395240769372213e-05
leaf_weight=212 207 26
leaf_count=212 207 26
internal_value=0 0.0056981
internal_weight=0 238
internal_count=445 238
is_linear=0
shrinkage=0.132801


Tree=51
num_leaves=4
num_cat=0
split_feature=2 11 478
split_gain=7.23899 0.0722234 0.0783403
threshold=1.0000000180025095e-35 -1.0795959071815526 0.96184808209045347
decision_type=2 2 2
left_child=1 -1 -3
right_child=-2 2 -4
leaf_value=-3.1957985415303676e-05 -0.006171567992905835 0.0058402926750525733 -2.8703024994153881e-05
leaf_weight=21 206 193 25
leaf_count=21 206 193 25
internal_value=0 0.00564137 0.00573472
internal_weight=0 239 218
internal_count=445 239 218
is_linear=0
shrinkage=0.132801


Tree=52
num_leaves=3
num_cat=0
split_feature=135 227
split_gain=6.94771 0.107048
threshold=0.44118293755078769 -0.92041501077536469
decision_type=2 2
left_child=1 -1
right_child=-2 -3
leaf_value=-6.7271162537689146e-05 -0.0060483197511156809 0.0056479610165348281
leaf_weight=21 205 219
leaf_count=21 205 219
internal_value=0 0.00552452
internal_weight=0 240
internal_count=445 240
is_linear=0
shrinkage=0.132801


Tree=53
num_leaves=5
num_cat=0
split_feature=139 195 11 270
split_gain=6.45571 0.15793 0.104918 0.0507192
threshold=1.0000000180025095e-35 1.252993579992707 -1.0795959071815526 -0.82247886783034463
decision_type=2 2 2 2
left_child=3 2 -2 -1
right_child=1 -3 -4 -5
leaf_value=1.7744192228628949e-06 -6.7530490224927992e-05 -0.00011978958130142038 0.0056238396025383398 -0.0059082783150525347
leaf_weight=25 20 22 194 184
leaf_count=25 20 22 194 184
internal_value=0 0.00533031 0.0055018 -0.00582545
internal_weight=0 236 214 209
internal_count=445 236 214 209
is_linear=0
shrinkage=0.132801


Tree=54
num_leaves=4
num_cat=0
split_feature=304 421 176
split_gain=6.63285 0.0872716 0.0836871
threshold=1.0000000180025095e-35 1.7347179124917702 0.96184808209045392
decision_type=2 2 2
left_child=1 2 -1
right_child=-2 -3 -4
leaf_value=0.0056093058059993569 -0.0059112703137130553 -5.2971445491519107e-05 -4.3787780716604286e-05
leaf_weight=197 206 20 22
leaf_count=197 206 20 22
internal_value=0 0.0053965 0.00550274
internal_weight=0 239 219
internal_count=445 239 219
is_linear=0
shrinkage=0.132801


Tree=55
num_leaves=4
num_cat=0
split_feature=304 11 176
split_gain=6.4369 0.082448 0.0898126
threshold=1.0000000180025095e-35 -1.0795959071815526 0.96184808209045392
decision_type=2 2 2
left_child=1 -1 -3
right_child=-2 2 -4
leaf_value=-4.8261216150718659e-05 -0.0058221840372066676 0.0055386219095631926 -4.6325472372942263e-05
leaf_weight=21 206 193 25
leaf_count=21 206 193 25
internal_value=0 0.00531724 0.00542141
internal_weight=0 239 218
internal_count=445 239 218
is_linear=0
shrinkage=0.132801


Tree=56
num_leaves=4
num_cat=0
split_feature=2 119 122
split_gain=6.24843 0.0900292 0.0210688
threshold=1.0000000180025095e-35 1.7347179124917702 -1.4681559325783582
decision_type=2 2 2
left_child=1 2 -1
right_child=-2 -3 -4
leaf_value=1.1786979194919667e-05 -0.005734440442307592 -5.9182460785542633e-05 0.0053992235405128973
leaf_weight=20 206 20 199
leaf_count=20 206 20 199
internal_value=0 0.00524059 0.00535066
internal_weight=0 239 219
internal_count=445 239 219
is_linear=0
shrinkage=0.132801


Tree=57
num_leaves=4
num_cat=0
split_feature=437 421 188
split_gain=5.99419 0.131037 0.0477483
threshold=0.80068039631971266 1.8656112653629182 0.97307217051388262
decision_type=2 2 2
left_child=1 2 -1
right_child=-2 -3 -4
leaf_value=0.0053328864271457322 -0.0056374879854011297 -0.00010387949896338741 -1.6258650988085279e-05
leaf_weight=206 199 20 20
leaf_count=206 199 20 20
internal_value=0 0.0051124 0.00526034
internal_weight=0 246 226
internal_count=445 246 226
is_linear=0
shrinkage=0.132801


Tree=58
num_leaves=4
num_cat=0
split_feature=2 313 195
split_gain=5.88786 0.0917928 0.106202
threshold=1.0000000180025095e-35 -1.0795959071815526 1.252993579992707
decision_type=2 2 2
left_child=1 -1 -3
right_child=-2 2 -4
leaf_value=-6.3019638461823762e-05 -0.005567496633303682 0.0053287681130878188 -7.4675949175726202e-05
leaf_weight=21 206 197 21
leaf_count=21 206 197 21
internal_value=0 0.00508622 0.0052009
internal_weight=0 239 218
internal_count=445 239 218
is_linear=0
shrinkage=0.132801


Tree=59
num_leaves=5
num_cat=0
split_feature=2 421 313 122
split_gain=5.71334 0.0903312 0.0511161 0.0322257
threshold=1.0000000180025095e-35 1.7347179124917702 -1.0680156337757636 -1.4681559325783582
decision_type=2 2 2 2
left_child=1 2 -1 -4
right_child=-2 -3 3 -5
leaf_value=-2.1868784894320285e-05 -0.0054835913553625531 -6.4965604265602926e-05 -1.2527817728980813e-06 0.0052593872069375451
leaf_weight=20 206 20 20 179
leaf_count=20 206 20 20 179
internal_value=0 0.005011 0.00512371 0.00520009
internal_weight=0 239 219 199
internal_count=445 239 219 199
is_linear=0
shrinkage=0.132801


Tree=60
num_leaves=4
num_cat=0
split_feature=437 36 176
split_gain=5.4934 0.104839 0.0548403
threshold=0.80068039631971266 1.0299660058506273 0.98094971229511585
decision_type=2 2 2
left_child=1 2 -1
right_child=-2 -3 -4
leaf_value=0.0051045353481686834 -0.005393587367623208 -8.3235877049977157e-05 -2.7448734939052482e-05
leaf_weight=206 199 20 20
leaf_count=206 199 20 20
internal_value=0 0.00489728 0.00502454
internal_weight=0 246 226
internal_count=445 246 226
is_linear=0
shrinkage=0.132801


Tree=61
num_leaves=5
num_cat=0
split_feature=304 11 195 424
split_gain=5.39187 0.0933612 0.113094 0.0365121
threshold=1.0000000180025095e-35 -1.0680156337757636 1.252993579992707 -1.4681559325783577
decision_type=2 2 2 2
left_child=1 -1 3 -3
right_child=-2 2 -4 -5
leaf_value=-6.8644451645935415e-05 -0.0053246627137903567 -6.6348924619966447e-06 -8.7586791640383317e-05 0.0051909119318982178
leaf_weight=22 206 20 21 176
leaf_count=22 206 20 21 176
internal_value=0 0.00487028 0.00499027 0.00512742
internal_weight=0 239 217 196
internal_count=445 239 217 196
is_linear=0
shrinkage=0.132801


Tree=62
num_leaves=6
num_cat=0
split_feature=2 421 313 424 414
split_gain=5.23916 0.0961791 0.0540511 0.0349359 0.00569331
threshold=1.0000000180025095e-35 1.7347179124917702 -1.0680156337757636 -1.4681559325783577 -1.3744407704246517
decision_type=2 2 2 2 2
left_child=1 2 -1 -4 -2
right_child=4 -3 3 -5 -6
leaf_value=-2.8355766748570477e-05 -2.6504420728513317e-05 -7.6534027391930815e-05 -6.624077114736903e-06 0.0050677038922451205 -0.0052787884326700374
leaf_weight=20 20 20 20 179 186
leaf_count=20 20 20 20 179 186
internal_value=0 0.00480489 0.00492566 0.00500568 -0.00524442
internal_weight=0 239 219 199 206
internal_count=445 239 219 199 206
is_linear=0
shrinkage=0.132801


Tree=63
num_leaves=4
num_cat=0
split_feature=39 478 114
split_gain=5.03205 0.103121 0.118354
threshold=0.52917100707237141 0.96184808209045347 0.8932274955723748
decision_type=2 2 2
left_child=1 2 -1
right_child=-2 -3 -4
leaf_value=0.0050013103839855041 -0.0051376909964979773 -7.7726029830068165e-05 -8.8108363335075138e-05
leaf_weight=185 207 26 27
leaf_count=185 207 26 27
internal_value=0 0.00471097 0.00484801
internal_weight=0 238 212
internal_count=445 238 212
is_linear=0
shrinkage=0.132801


Tree=64
num_leaves=4
num_cat=0
split_feature=437 119 478
split_gain=4.91169 0.150995 0.104527
threshold=0.81484915377856226 1.8656112653629182 0.96184808209045347
decision_type=2 2 2
left_child=1 2 -1
right_child=-2 -3 -4
leaf_value=0.0049384632728235647 -0.0051022423494513688 -0.00014066662655606103 -8.2423398176192139e-05
leaf_weight=206 196 21 22
leaf_count=206 196 21 22
internal_value=0 0.00462843 0.00480615
internal_weight=0 249 228
internal_count=445 249 228
is_linear=0
shrinkage=0.132801


Tree=65
num_leaves=4
num_cat=0
split_feature=2 338 590
split_gain=4.81006 0.105176 0.0190338
threshold=1.0000000180025095e-35 0.90793990930552348 0.66637754131997273
decision_type=2 2 2
left_child=1 -1 -2
right_child=2 -3 -4
leaf_value=0.0047420588297793723 -1.0586476560033533e-05 -8.638962308153964e-05 -0.0050711995192206536
leaf_weight=215 20 24 186
leaf_count=215 20 24 186
internal_value=0 0.00460414 -0.00502483
internal_weight=0 239 206
internal_count=445 239 206
is_linear=0
shrinkage=0.132801


Tree=66
num_leaves=5
num_cat=0
split_feature=2 176 114 131
split_gain=4.66883 0.103744 0.127949 0.00276042
threshold=1.0000000180025095e-35 0.96184808209045392 0.8932274955723748 0.96542590203907208
decision_type=2 2 2 2
left_child=1 2 -1 -2
right_child=3 -3 -4 -5
leaf_value=0.0048369423668567892 -0.0049998328926000243 -8.4244751265195454e-05 -0.0001046756081640779 -4.2748946315655189e-05
leaf_weight=186 176 26 27 30
leaf_count=186 176 26 27 30
internal_value=0 0.00453104 0.00467128 -0.00495581
internal_weight=0 239 213 206
internal_count=445 239 213 206
is_linear=0
shrinkage=0.132801


Tree=67
num_leaves=5
num_cat=0
split_feature=135 234 183 433
split_gain=4.51277 0.115922 0.0820704 0.00236892
threshold=0.81484915377856215 0.92402297985441129 -0.77791916415371543 0.96542590203907208
decision_type=2 2 2 2
left_child=1 2 -1 -2
right_child=3 -3 -4 -5
leaf_value=-6.5646208558423815e-05 -0.0049449322082690235 -0.00011048040133169804 0.0046840523616995923 -4.2645039156039396e-05
leaf_weight=21 166 20 208 30
leaf_count=21 166 20 208 30
internal_value=0 0.00442625 0.00457232 -0.00490148
internal_weight=0 249 229 196
internal_count=445 249 229 196
is_linear=0
shrinkage=0.132801


Tree=68
num_leaves=6
num_cat=0
split_feature=437 119 122 313 131
split_gain=4.38757 0.152192 0.0817683 0.0412597 0.00193051
threshold=0.81484915377856226 1.8656112653629182 -1.4681559325783582 -1.0680156337757636 0.96542590203907208
decision_type=2 2 2 2 2
left_child=1 2 -1 -4 -2
right_child=4 -3 3 -5 -6
leaf_value=-6.6079379276849418e-05 -0.0048835266627465504 -0.00015368924408915789 -1.7347892269111954e-05 0.0047250937975218364 -4.2541402405650005e-05
leaf_weight=21 166 21 21 186 30
leaf_count=21 166 21 21 186 30
internal_value=0 0.00435688 0.00454305 0.00465489 -0.004841
internal_weight=0 249 228 207 196
internal_count=445 249 228 207 196
is_linear=0
shrinkage=0.132801


Tree=69
num_leaves=4
num_cat=0
split_feature=63 338 590
split_gain=4.13136 0.112645 0.0313739
threshold=0.64279724818767736 1.0299660058506268 0.66637754131997273
decision_type=2 2 2
left_child=1 -1 -2
right_child=2 -3 -4
leaf_value=0.0043992544192512301 7.2428927337435725e-06 -0.00011293053098485384 -0.0047317255349015822
leaf_weight=216 20 20 189
leaf_count=216 20 20 189
internal_value=0 0.00425186 -0.00467319
internal_weight=0 236 209
internal_count=445 236 209
is_linear=0
shrinkage=0.132801


Tree=70
num_leaves=6
num_cat=0
split_feature=135 421 176 11 131
split_gain=4.15414 0.150895 0.114449 0.0500044 0.00974707
threshold=0.81484915377856215 1.8656112653629182 0.96184808209045392 -1.0680156337757636 0.96542590203907208
decision_type=2 2 2 2 2
left_child=1 2 3 -1 -2
right_child=4 -3 -4 -5 -6
leaf_value=-3.0362566684826649e-05 -0.0047694432730596495 -0.00015798540569530303 -0.00010612773398458453 0.0046466536693443219 -3.2473766317611071e-05
leaf_weight=20 166 21 22 186 30
leaf_count=20 166 21 22 186 30
internal_value=0 0.00423073 0.00441928 0.00456821 -0.00471967
internal_weight=0 249 228 206 196
internal_count=445 249 228 206 196
is_linear=0
shrinkage=0.132801


Tree=71
num_leaves=6
num_cat=0
split_feature=304 497 11 424 590
split_gain=4.07972 0.118622 0.132283 0.0589719 0.0359391
threshold=1.0000000180025095e-35 1.2529935799927068 -1.0680156337757636 -1.4681559325783577 0.66637754131997273
decision_type=2 2 2 2 2
left_child=1 2 -1 -4 -2
right_child=4 -3 3 -5 -6
leaf_value=-0.0001300783405816846 1.2694290512752354e-05 -0.00011885637512253833 -4.1346130884514361e-05 0.0046265259218453755 -0.0047202235135523742
leaf_weight=21 20 22 20 176 186
leaf_count=21 20 22 20 176 186
internal_value=0 0.00421274 0.00436966 0.00453795 -0.00465682
internal_weight=0 239 217 196 206
internal_count=445 239 217 196 206
is_linear=0
shrinkage=0.132801


Tree=72
num_leaves=5
num_cat=0
split_feature=304 195 36 112
split_gain=3.96802 0.116542 0.0730458 0.0350879
threshold=1.0000000180025095e-35 1.252993579992707 0.90793990930552326 -1.3744407704246517
decision_type=2 2 2 2
left_child=1 2 -1 -2
right_child=3 -3 -4 -5
leaf_value=0.0044168373021268494 1.2673593840585923e-05 -0.00011864350534371164 -6.1999994723133562e-05 -0.0046552780438094601
leaf_weight=196 20 22 21 186
leaf_count=196 20 22 21 186
internal_value=0 0.00415468 0.0043107 -0.00459261
internal_weight=0 239 217 206
internal_count=445 239 217 206
is_linear=0
shrinkage=0.132801


Tree=73
num_leaves=5
num_cat=0
split_feature=2 416 176 112
split_gain=3.85506 0.119314 0.141229 0.034258
threshold=1.0000000180025095e-35 0.89322749557237469 0.96184808209045392 -1.3744407704246517
decision_type=2 2 2 2
left_child=1 2 -1 -2
right_child=3 -3 -4 -5
leaf_value=0.0044468610575732264 1.2652928747848854e-05 -0.00011653281853929857 -0.0001395116169107798 -0.004591225958628346
leaf_weight=186 20 28 25 186
leaf_count=186 20 28 25 186
internal_value=0 0.00409276 0.00426053 -0.00452928
internal_weight=0 239 211 206
internal_count=445 239 211 206
is_linear=0
shrinkage=0.132801


Tree=74
num_leaves=5
num_cat=0
split_feature=2 189 112 219
split_gain=3.74718 0.119644 0.0334488 0.0311236
threshold=1.0000000180025095e-35 -0.21773887964403613 -1.3744407704246517 1.4114773317255422
decision_type=2 2 2 2
left_child=1 -1 -2 -3
right_child=2 3 -4 -5
leaf_value=-0.00011161573499676548 1.2632302522101769e-05 0.0042698592054615384 -0.0045280553004436262 -1.3681249857985381e-05
leaf_weight=34 20 185 186 20
leaf_count=34 20 185 186 20
internal_value=0 0.00403381 -0.00446683 0.0042105
internal_weight=0 239 206 205
internal_count=445 239 206 205
is_linear=0
shrinkage=0.132801


Tree=75
num_leaves=6
num_cat=0
split_feature=439 548 313 195 461
split_gain=3.33247 0.175644 0.142288 0.149276 0.0940153
threshold=0.12128672517048725 -0.6906296288519993 -1.0680156337757636 1.252993579992707 0.46337019855630063
decision_type=2 2 2 2 2
left_child=1 -1 -2 4 -4
right_child=2 -3 3 -5 -6
leaf_value=0.00018060872284530593 -0.0001699937246570393 -0.0044424631712485906 0.004321581984727027 -0.00016885143262721471 -9.2439443940053054e-05
leaf_weight=26 20 182 177 20 20
leaf_count=26 20 182 177 20 20
internal_value=0 -0.00421638 0.00380055 0.00399382 0.00419035
internal_weight=0 208 237 217 197
internal_count=445 208 237 217 197
is_linear=0
shrinkage=0.132801


Tree=76
num_leaves=5
num_cat=0
split_feature=2 114 478 433
split_gain=3.54856 0.120393 0.144691 0.0448703
threshold=1.0000000180025095e-35 0.8932274955723748 0.96184808209045347 0.96542590203907208
decision_type=2 2 2 2
left_child=1 2 -1 -2
right_child=3 -3 -4 -5
leaf_value=0.0042924236055736148 -0.0044345148157548158 -0.00012541589073817241 -0.00015130739340156522 1.4764317203888676e-05
leaf_weight=186 176 28 25 30
leaf_count=186 176 28 25 30
internal_value=0 0.00392445 0.00409762 -0.00434789
internal_weight=0 239 211 206
internal_count=445 239 211 206
is_linear=0
shrinkage=0.132801


Tree=77
num_leaves=5
num_cat=0
split_feature=39 195 11 270
split_gain=3.40134 0.117482 0.133347 0.0434288
threshold=0.52917100707237141 1.252993579992707 -1.0680156337757636 -0.82247886783034463
decision_type=2 2 2 2
left_child=1 2 -1 -2
right_child=3 -3 -4 -5
leaf_value=-0.00014710546597428579 2.4258785850800233e-05 -0.00013317607123082231 0.0041853013606867806 -0.0043354171941884009
leaf_weight=21 23 22 195 184
leaf_count=21 23 22 195 184
internal_value=0 0.00384045 0.00400576 -0.00425872
internal_weight=0 238 216 207
internal_count=445 238 216 207
is_linear=0
shrinkage=0.132801


Tree=78
num_leaves=6
num_cat=0
split_feature=304 189 509 433 176
split_gain=3.35329 0.126694 0.0794377 0.0501692 0.00712913
threshold=1.0000000180025095e-35 -0.21773887964403613 1.0902468200197648 0.96542590203907208 -1.5087155105124168
decision_type=2 2 2 2 2
left_child=1 -1 4 -2 -3
right_child=3 2 -4 -5 -6
leaf_value=-0.00013153008142423734 -0.0043255346763723182 1.6083809048236109e-05 -7.7658948661345843e-05 2.3852381383052033e-05 0.0041514065403507987
leaf_weight=34 176 20 22 30 163
leaf_count=34 176 20 22 30 163
internal_value=0 0.0038094 0.00399992 -0.00423251 0.0041197
internal_weight=0 239 205 206 183
internal_count=445 239 205 206 183
is_linear=0
shrinkage=0.132801


Tree=79
num_leaves=5
num_cat=0
split_feature=437 421 176 301
split_gain=3.27558 0.149325 0.124547 0.0202995
threshold=0.81484915377856226 1.8656112653629182 0.96184808209045392 -0.32453829300659248
decision_type=2 2 2 2
left_child=1 2 -1 -2
right_child=3 -3 -4 -5
leaf_value=0.0041194150535502306 -2.5648154531340506e-06 -0.00018097287635720786 -0.00013737796137213665 -0.0042534011586980031
leaf_weight=206 22 21 22 174
leaf_count=206 22 21 22 174
internal_value=0 0.00374473 0.00394811 -0.00420388
internal_weight=0 249 228 196
internal_count=445 249 228 196
is_linear=0
shrinkage=0.132801


Tree=80
num_leaves=5
num_cat=0
split_feature=2 36 509 572
split_gain=3.17711 0.124487 0.02207 0.0195109
threshold=1.0000000180025095e-35 0.90793990930552326 1.0902468200197648 -0.82247886783034452
decision_type=2 2 2 2
left_child=1 2 -1 -2
right_child=3 -3 -4 -5
leaf_value=0.0039319351875439466 -2.5602244599428764e-06 -0.00014651578866233333 -6.5822911530755334e-06 -0.0041733812774044574
leaf_weight=195 22 24 20 184
leaf_count=195 22 24 20 184
internal_value=0 0.00370306 0.00388295 -0.0041251
internal_weight=0 239 215 206
internal_count=445 239 215 206
is_linear=0
shrinkage=0.132801


Tree=81
num_leaves=7
num_cat=0
split_feature=135 119 189 488 433 135
split_gain=3.09665 0.146891 0.0915464 0.0794426 0.0614991 0.0317744
threshold=0.81484915377856215 1.8656112653629182 -0.21773887964403613 -0.42892501981978903 0.96542590203907208 -1.1490927483105708
decision_type=2 2 2 2 2 2
left_child=1 2 -1 -4 -2 -5
right_child=4 -3 3 5 -6 -7
leaf_value=-8.2956678548120141e-05 -0.0042035943266517566 -0.00018412119817703328 -8.0595567267401425e-05 -1.357563267721025e-05 4.154567113112839e-05 0.0041704731154574657
leaf_weight=35 166 21 20 22 30 151
leaf_count=35 166 21 20 22 30 151
internal_value=0 0.00363302 0.00383792 0.00398814 -0.00409601 0.00410657
internal_weight=0 249 228 193 196 173
internal_count=445 249 228 193 196 173
is_linear=0
shrinkage=0.132801


Tree=82
num_leaves=6
num_cat=0
split_feature=2 491 497 112 258
split_gain=3.01142 0.131628 0.140243 0.0571335 0.0433653
threshold=1.0000000180025095e-35 -0.21773887964403607 1.2529935799927068 -1.3744407704246517 0.34936553345954297
decision_type=2 2 2 2 2
left_child=1 -1 4 -2 -3
right_child=3 2 -4 -5 -6
leaf_value=-0.00014933946249399673 5.0846209258715825e-05 0.0040817653773391116 -0.0001656674481308933 -0.0041087933433683428 -2.8139879787977048e-05
leaf_weight=34 20 160 21 186 24
leaf_count=34 20 160 21 186 24
internal_value=0 0.00360353 0.00380633 -0.00401789 0.00400151
internal_weight=0 239 205 206 184
internal_count=445 239 205 206 184
is_linear=0
shrinkage=0.132801


Tree=83
num_leaves=6
num_cat=0
split_feature=135 119 478 313 270
split_gain=2.94452 0.144744 0.128463 0.0624826 0.0273062
threshold=0.81484915377856215 1.8656112653629182 0.96184808209045347 -1.0680156337757636 -0.82247886783034463
decision_type=2 2 2 2 2
left_child=1 2 3 -1 -2
right_child=4 -3 -4 -5 -6
leaf_value=-6.0030796000800125e-05 9.5950762950024055e-06 -0.00018636543834397589 -0.00015184738493446309 0.004031364805175618 -0.0040493624568609249
leaf_weight=20 22 21 22 186 174
leaf_count=20 22 21 22 186 174
internal_value=0 0.00354526 0.00375115 0.00393307 -0.00399134
internal_weight=0 249 228 206 196
internal_count=445 249 228 206 196
is_linear=0
shrinkage=0.132801


Tree=84
num_leaves=6
num_cat=0
split_feature=135 176 174 433 294
split_gain=2.863 0.124322 0.0993851 0.0711079 0.0686473
threshold=0.81484915377856215 0.96184808209045392 -0.67790439379910528 0.96542590203907208 0.46006491557998469
decision_type=2 2 2 2 2
left_child=1 2 -1 -2 -4
right_child=3 -3 4 -5 -6
leaf_value=-0.00011839829981332738 -0.0040602205274667159 -0.00015509176528995269 0.0039359153131195909 5.8608879616438442e-05 -7.0032340305072827e-05
leaf_weight=20 166 26 182 30 21
leaf_count=20 166 26 182 30 21
internal_value=0 0.00349228 0.00368025 -0.00393953 0.00382731
internal_weight=0 249 223 196 203
internal_count=445 249 223 196 203
is_linear=0
shrinkage=0.132801


Tree=85
num_leaves=7
num_cat=0
split_feature=135 119 176 488 270 295
split_gain=2.78621 0.141776 0.124171 0.0700809 0.0304507 0.0104875
threshold=0.81484915377856215 1.8656112653629182 0.96184808209045392 -0.42892501981978903 -0.82247886783034463 -0.36303890673692313
decision_type=2 2 2 2 2 2
left_child=1 2 3 -1 -2 -6
right_child=4 -3 -4 -5 5 -7
leaf_value=-6.8249096279635865e-05 1.5508590932350705e-05 -0.00018850183331463091 -0.00015129765798662889 0.0039419493409903177 -1.0081647802253809e-05 -0.0039877674969657755
leaf_weight=24 22 21 22 182 20 154
leaf_count=24 22 21 22 182 20 154
internal_value=0 0.00344165 0.00364825 0.00382843 -0.00389008 -0.00395225
internal_weight=0 249 228 206 196 174
internal_count=445 249 228 206 196 174
is_linear=0
shrinkage=0.132801


Tree=86
num_leaves=7
num_cat=0
split_feature=135 119 176 433 186 189
split_gain=2.71356 0.139349 0.122045 0.0737595 0.0687632 0.0403913
threshold=0.81484915377856215 1.8656112653629182 0.96184808209045392 0.96542590203907208 -0.42892501981978898 -0.21773887964403613
decision_type=2 2 2 2 2 2
left_child=1 2 4 -2 -1 -6
right_child=3 -3 -4 -5 5 -7
leaf_value=-6.8115918473856074e-05 -0.0039701353912883321 -0.00018817935491186554 -0.00015102668106192733 6.5249766854648329e-05 -2.4139534928546825e-05 0.0039683981875365676
leaf_weight=24 166 21 22 30 26 156
leaf_count=24 166 21 22 30 26 156
internal_value=0 0.00339101 0.00359675 -0.00384491 0.00377606 0.00388876
internal_weight=0 249 228 196 206 182
internal_count=445 249 228 196 206 182
is_linear=0
shrinkage=0.132801


Tree=87
num_leaves=6
num_cat=0
split_feature=2 288 176 131 246
split_gain=2.6361 0.131243 0.142985 0.0717426 0.0408633
threshold=1.0000000180025095e-35 0.21830771871067489 0.96184808209045392 0.96542590203907208 0.30588602925627623
decision_type=2 2 2 2 2
left_child=1 2 4 -2 -1
right_child=3 -3 -4 -5 -6
leaf_value=0.0038567644108350508 -0.0038938901008845265 -0.00017032896453653755 -0.00017777880086816683 6.5091200815776501e-05 -2.8467758419705436e-05
leaf_weight=161 176 28 25 30 25
leaf_count=161 176 28 25 30 25
internal_value=0 0.00336075 0.00356565 -0.00377076 0.00377714
internal_weight=0 239 211 206 186
internal_count=445 239 211 206 186
is_linear=0
shrinkage=0.132801


Tree=88
num_leaves=8
num_cat=0
split_feature=135 421 478 186 189 301 198
split_gain=2.5801 0.136223 0.11847 0.068457 0.041825 0.03681 0.0163774
threshold=0.81484915377856215 1.8656112653629182 0.96184808209045347 -0.42892501981978898 -0.21773887964403613 -0.32453829300659248 -1.3130514862158218
decision_type=2 2 2 2 2 2 2
left_child=1 2 3 -1 -5 -2 -7
right_child=5 -3 -4 4 -6 6 -8
leaf_value=-7.0465990641699041e-05 2.6962155132971014e-05 -0.00018894900057764882 -0.00015043778077776914 -2.8005138245592715e-05 0.0038854272554473073 -5.0338096240282462e-07 -0.0038629471299040661
leaf_weight=24 22 21 22 26 156 20 154
leaf_count=24 22 21 22 26 156 20 154
internal_value=0 0.00330657 0.00351202 0.00368978 0.00380346 -0.00374917 -0.00382008
internal_weight=0 249 228 206 182 196 174
internal_count=445 249 228 206 182 196 174
is_linear=0
shrinkage=0.132801


Tree=89
num_leaves=6
num_cat=0
split_feature=135 189 207 131 560
split_gain=2.51722 0.120241 0.142676 0.074746 0.073179
threshold=0.81484915377856215 -0.21773887964403613 1.1447015226292756 0.96542590203907208 0.34936553345954302
decision_type=2 2 2 2 2
left_child=1 -1 4 -2 -3
right_child=3 2 -4 -5 -6
leaf_value=-0.0001491653918860273 -0.0038340831250938848 0.00379996600724649 -0.00018926508691122007 7.1496366053968517e-05 -7.5090571240180796e-05
leaf_weight=38 166 165 20 30 26
leaf_count=38 166 165 20 30 26
internal_value=0 0.00326395 0.00346707 -0.00370545 0.00367688
internal_weight=0 249 211 196 191
internal_count=445 249 211 196 191
is_linear=0
shrinkage=0.132801


Tree=90
num_leaves=7
num_cat=0
split_feature=437 119 478 131 294 491
split_gain=2.45207 0.134029 0.118509 0.0733963 0.0694028 0.0402393
threshold=0.81484915377856226 1.8656112653629182 0.96184808209045347 0.96542590203907208 -0.12071288842421798 -0.21773887964403607
decision_type=2 2 2 2 2 2
left_child=1 2 4 -2 -1 -6
right_child=3 -3 -4 -5 5 -7
leaf_value=-7.4544418843538191e-05 -0.0037864720226698082 -0.00019126438386869799 -0.00015503864478532239 7.1322616054160192e-05 -2.763103833079729e-05 0.0038040637189496931
leaf_weight=24 166 21 22 30 26 156
leaf_count=24 166 21 22 30 26 156
internal_value=0 0.00321995 0.00342647 -0.00365878 0.00360732 0.00372362
internal_weight=0 249 228 196 206 182
internal_count=445 249 228 196 206 182
is_linear=0
shrinkage=0.132801


Tree=91
num_leaves=7
num_cat=0
split_feature=437 416 478 476 131 294
split_gain=2.38985 0.11685 0.137641 0.106647 0.0720726 0.00331329
threshold=0.81484915377856226 0.89322749557237469 0.96184808209045347 -0.6779043937991055 0.96542590203907208 -0.11232973928637995
decision_type=2 2 2 2 2 2
left_child=1 2 3 -1 -2 -5
right_child=4 -3 -4 5 -6 -7
leaf_value=-0.00013267085672268576 -0.0037394519249526223 -0.00015923138720193327 -0.00018224238554047283 1.8331563902040346e-05 7.1149252353246731e-05 0.0037698531853537537
leaf_weight=20 166 29 25 20 30 155
leaf_count=20 166 29 25 20 30 155
internal_value=0 0.00317825 0.00337124 0.00358303 -0.0036127 0.00374434
internal_weight=0 249 220 195 196 175
internal_count=445 249 220 195 196 175
is_linear=0
shrinkage=0.132801


Tree=92
num_leaves=6
num_cat=0
split_feature=135 36 574 433 135
split_gain=2.32937 0.119259 0.0981406 0.0707743 0.0318393
threshold=0.81484915377856215 0.90793990930552326 0.87696033773086957 0.96542590203907208 -1.1490927483105708
decision_type=2 2 2 2 2
left_child=1 2 4 -2 -1
right_child=3 -3 -4 -5 -6
leaf_value=-2.3893525096259493e-05 -0.0036930160244473824 -0.0001697816509347322 -0.00012788180579886008 7.0976349796639048e-05 0.003557866003864831
leaf_weight=23 166 25 24 30 177
leaf_count=23 166 25 24 30 177
internal_value=0 0.00313731 0.00333145 -0.0035672 0.00349108
internal_weight=0 249 224 196 200
internal_count=445 249 224 196 200
is_linear=0
shrinkage=0.132801


Tree=93
num_leaves=8
num_cat=0
split_feature=135 119 424 313 270 326 500
split_gain=2.26753 0.132153 0.112659 0.0675079 0.0483322 0.0417493 0.0270053
threshold=0.81484915377856215 1.8656112653629182 -1.4681559325783577 -1.0680156337757636 -0.82247886783034463 -1.5156055657248768 -1.3130514862158222
decision_type=2 2 2 2 2 2 2
left_child=1 2 -1 -4 -2 -5 -6
right_child=4 -3 3 5 6 -7 -8
leaf_value=-0.00015434770550824746 4.8879482628275388e-05 -0.00019689084693290959 -7.9596614772793926e-05 -3.0643740933154509e-05 1.7785888063326046e-05 0.0036779536678449402 -0.0036678073557166644
leaf_weight=21 22 21 21 28 20 158 154
leaf_count=21 22 21 21 28 20 158 154
internal_value=0 0.00309287 0.00330293 0.00347966 -0.00352225 0.00359264 -0.00361042
internal_weight=0 249 228 207 196 186 174
internal_count=445 249 228 207 196 186 174
is_linear=0
shrinkage=0.132801


Tree=94
num_leaves=8
num_cat=0
split_feature=437 421 122 23 301 297 295
split_gain=2.21136 0.130133 0.110955 0.0596813 0.0475277 0.0470604 0.0265
threshold=0.81484915377856226 1.8656112653629182 -1.4681559325783582 1.8582789840217311 -0.32453829300659248 -0.10175082408149873 -0.36303890673692313
decision_type=2 2 2 2 2 2 2
left_child=1 2 -1 5 -2 -4 -6
right_child=4 -3 3 -5 6 -7 -8
leaf_value=-0.00015408365937212942 4.8791941383288021e-05 -0.00019655401340714577 -4.6489631387447664e-05 -6.8262252827512484e-05 1.7756901790952114e-05 0.0036283156129265316 -0.0036252661191224309
leaf_weight=21 22 21 22 22 20 163 154
leaf_count=21 22 21 22 22 20 163 154
internal_value=0 0.00305205 0.00326134 0.00343735 -0.00348081 0.00354156 -0.00356838
internal_weight=0 249 228 207 196 185 174
internal_count=445 249 228 207 196 185 174
is_linear=0
shrinkage=0.132801


Tree=95
num_leaves=6
num_cat=0
split_feature=441 572 114 176 246
split_gain=2.12648 0.198213 0.140364 0.104738 0.0174876
threshold=0.13559690430777921 -0.82247886783034452 0.8932274955723748 0.98094971229511585 0.23483352375324434
decision_type=2 2 2 2 2
left_child=1 -1 3 4 -2
right_child=2 -3 -4 -5 -6
leaf_value=0.00026447432235401919 0.0034897441597408585 -0.0036660337798375695 -0.00020440092455348003 -0.00014214017965085516 3.2010239491974757e-07
leaf_weight=27 146 193 30 23 26
leaf_count=27 146 193 30 23 26
internal_value=0 -0.00337535 0.00303057 0.00326667 0.0034391
internal_weight=0 220 225 195 172
internal_count=445 220 225 195 172
is_linear=0
shrinkage=0.132801


Tree=96
num_leaves=8
num_cat=0
split_feature=437 119 176 297 298 198 437
split_gain=2.10523 0.127181 0.113456 0.070933 0.0346497 0.0252404 0.00793694
threshold=0.81484915377856226 1.8656112653629182 0.96184808209045392 -0.10175082408149873 -0.70180493249247988 -1.2570056082831849 -1.1490927483105706
decision_type=2 2 2 2 2 2 2
left_child=1 2 3 -1 -2 -6 -5
right_child=4 -3 -4 6 5 -7 -8
leaf_value=-8.1973226604360001e-05 2.8145860283352031e-05 -0.00019689554877471617 -0.00016090335593848634 1.2588361008546281e-05 1.7589325549043063e-05 -0.0035230287871479268 0.0035319996558370987
leaf_weight=27 25 21 22 23 20 151 156
leaf_count=27 25 21 22 23 20 151 156
internal_value=0 0.00298013 0.0031889 0.00337214 -0.00339386 -0.00346735 0.00349806
internal_weight=0 249 228 206 196 171 179
internal_count=445 249 228 206 196 171 179
is_linear=0
shrinkage=0.132801


Tree=97
num_leaves=7
num_cat=0
split_feature=135 119 424 131 23 36
split_gain=2.05406 0.125272 0.108774 0.0821347 0.0621567 0.0182073
threshold=0.81484915377856215 1.8656112653629182 -1.4681559325783577 0.96542590203907208 1.8582789840217311 0.73882888971681393
decision_type=2 2 2 2 2 2
left_child=1 2 -1 -2 5 -4
right_child=3 -3 4 -5 -6 -7
leaf_value=-0.00015704672914232151 -0.0035003257416870623 -0.00019655871987674938 0.0034838367655616845 9.6204292049777824e-05 -7.5714144442798909e-05 -5.1091677323459846e-06
leaf_weight=21 166 21 163 30 22 22
leaf_count=21 166 21 163 30 22 22
internal_value=0 0.00294144 0.00314947 -0.0033548 0.00332685 0.00343648
internal_weight=0 249 228 196 207 185
internal_count=445 249 228 196 207 185
is_linear=0
shrinkage=0.132801


Tree=98
num_leaves=8
num_cat=0
split_feature=2 189 258 131 589 466 24
split_gain=1.9942 0.138937 0.116662 0.0800506 0.0775952 0.017397 0.00138096
threshold=1.0000000180025095e-35 -0.21773887964403613 0.26282054803826699 0.96542590203907208 1.2136518567161911 -1.5843549132963151 -1.515605565724877
decision_type=2 2 2 2 2 2 2
left_child=1 -1 4 5 -3 -2 -6
right_child=3 2 -4 -5 6 -7 -8
leaf_value=-0.0002072675511089243 -2.5006900393077737e-06 -8.3718567919818988e-05 -0.00015484554323198156 9.5970482229289558e-05 1.951030496996416e-05 -0.0034859362220242751 0.003527376356922165
leaf_weight=34 28 35 34 30 20 148 116
leaf_count=34 28 35 34 30 20 148 116
internal_value=0 0.0029134 0.00315573 -0.00329015 0.00335893 -0.00343356 0.00350517
internal_weight=0 239 205 206 171 176 136
internal_count=445 239 205 206 171 176 136
is_linear=0
shrinkage=0.132801


Tree=99
num_leaves=8
num_cat=0
split_feature=437 288 560 325 270 295 275
split_gain=1.96071 0.120141 0.100075 0.0559527 0.0494246 0.0323468 0.0117003
threshold=0.81484915377856226 0.16830064918375001 0.34936553345954302 1.8582789840217311 -0.82247886783034463 -0.36303890673692313 -0.69372548674973766
decision_type=2 2 2 2 2 2 2
left_child=1 2 3 6 -2 -6 -1
right_child=4 -3 -4 -5 5 -7 -8
leaf_value=2.1309267548797971e-06 5.7505520297290541e-05 -0.00017492260552192957 -0.00013910106330001528 -7.0056489912598345e-05 3.0435510080542677e-05 -0.0034356799617815195 0.0034086126406479966
leaf_weight=20 22 39 28 20 20 154 142
leaf_count=20 22 39 28 20 20 154 142
internal_value=0 0.00287507 0.00309519 0.00327071 -0.00327632 -0.00336934 0.00337208
internal_weight=0 249 210 182 196 174 162
internal_count=445 249 210 182 196 174 162
is_linear=0
shrinkage=0.132801


Tree=100
num_leaves=7
num_cat=0
split_feature=437 485 246 433 172 276
split_gain=1.91477 0.113453 0.111213 0.0821263 0.0398789 0.0980459
threshold=0.81484915377856226 -0.77791916415371543 0.68079719490986534 0.96542590203907208 -0.50197444964138704 0.83002215309291161
decision_type=2 2 2 2 2 2
left_child=1 -1 4 -2 -3 -6
right_child=3 2 -4 -5 5 -7
leaf_value=-0.00018410701807580206 -0.0033860149191619884 -3.7647424967539058e-05 -0.00016756476056044609 0.00010155128562582864 0.0034821239170869833 -0.0001178357764119538
leaf_weight=21 166 28 21 30 145 34
leaf_count=21 166 28 21 30 145 34
internal_value=0 0.00284135 0.00303719 -0.00323753 0.00322271 0.00330764
internal_weight=0 249 228 196 207 179
internal_count=445 249 228 196 207 179
is_linear=0
shrinkage=0.132801


Tree=101
num_leaves=8
num_cat=0
split_feature=304 189 497 112 258 276 326
split_gain=1.85977 0.138891 0.148199 0.0871442 0.0750758 0.0237878 0.0102329
threshold=1.0000000180025095e-35 -0.21773887964403613 1.2529935799927068 -1.3744407704246517 0.34936553345954297 0.93782732756846088 -1.5915629651970657
decision_type=2 2 2 2 2 2 2
left_child=1 -1 4 -2 6 -5 -3
right_child=3 2 -4 5 -6 -7 -8
leaf_value=-0.00021522847260743309 0.00012298694636757494 5.1510288220393989e-06 -0.00022345547915988013 -0.0033747417337283139 -9.4242151286327334e-05 1.786216210198259e-05 0.0034696238145212727
leaf_weight=34 20 20 21 166 24 20 140
leaf_count=34 20 20 21 166 24 20 140
internal_value=0 0.00281658 0.00306431 -0.00317396 0.00330334 -0.00332094 0.00343515
internal_weight=0 239 205 206 184 186 160
internal_count=445 239 205 206 184 186 160
is_linear=0
shrinkage=0.132801


Tree=102
num_leaves=7
num_cat=0
split_feature=39 497 11 434 145 198
split_gain=1.79028 0.121658 0.149809 0.101617 0.049395 0.0423523
threshold=0.26938727007749946 1.2529935799927068 -1.0492232238239441 -1.104529926793709 -0.19606412660344905 -1.3916153501874755
decision_type=2 2 2 2 2 2
left_child=1 2 -1 -2 -4 -5
right_child=3 -3 4 5 -6 -7
leaf_value=-0.00023069782395128107 0.00014216383358670777 -0.00020171848624859126 -6.0774866871645482e-05 4.8333117662797155e-05 0.0033273828058993015 -0.0033600584358644404
leaf_weight=22 27 22 20 20 168 166
leaf_count=22 27 22 20 20 168 166
internal_value=0 0.00277485 0.00298928 -0.00310253 0.00323526 -0.00327876
internal_weight=0 232 210 213 188 186
internal_count=445 232 210 213 188 186
is_linear=0
shrinkage=0.132801


Tree=103
num_leaves=6
num_cat=0
split_feature=437 491 195 300 433
split_gain=1.77886 0.123251 0.14307 0.0903581 0.0830416
threshold=0.81484915377856226 -0.21773887964403607 1.252993579992707 0.1258274112281953 0.96542590203907208
decision_type=2 2 2 2 2
left_child=1 -1 3 -3 -2
right_child=4 2 -4 -5 -6
leaf_value=-0.0001918495336281435 -0.0032734511153120539 0.0033647221021162145 -0.00022272813512484737 -0.00011897401067818283 0.00010864689132911043
leaf_weight=38 166 163 21 27 30
leaf_count=38 166 163 21 27 30
internal_value=0 0.00273878 0.00296957 0.00320603 -0.0031204
internal_weight=0 249 211 190 196
internal_count=445 249 211 190 196
is_linear=0
shrinkage=0.132801


Tree=104
num_leaves=7
num_cat=0
split_feature=2 189 258 414 100 578
split_gain=1.72071 0.134995 0.113474 0.0880515 0.0543632 0.0269186
threshold=1.0000000180025095e-35 -0.21773887964403613 0.26282054803826699 -1.3744407704246517 -0.25404900491414195 0.93782732756846088
decision_type=2 2 2 2 2 2
left_child=1 -1 4 -2 -3 -5
right_child=3 2 -4 5 -6 -7
leaf_value=-0.00021821710566561747 0.00013026677306584745 -5.7811720272973222e-05 -0.000163105251145231 -0.003266713709585754 0.0032765159993440431 2.504210853085379e-05
leaf_weight=34 20 33 34 166 138 20
leaf_count=34 20 33 34 166 138 20
internal_value=0 0.00270707 0.00295545 -0.00305534 0.00316245 -0.00320759
internal_weight=0 239 205 206 171 186
internal_count=445 239 205 206 171 186
is_linear=0
shrinkage=0.132801


Tree=105
num_leaves=10
num_cat=0
split_feature=437 421 117 433 272 172 430 24 164
split_gain=1.69193 0.122458 0.134171 0.0838474 0.0591684 0.0423262 0.0264643 0.0107499 0.00402282
threshold=0.81484915377856226 1.8656112653629182 -0.53866751129408252 0.96542590203907208 -0.12940998349718155 -0.4602734692647778 -1.1419077709782226 -1.4690636086167466 -1.5843549132963155
decision_type=2 2 2 2 2 2 2 2 2
left_child=1 2 4 8 -1 -4 -7 -8 -2
right_child=3 -3 5 -5 -6 6 7 -9 -10
leaf_value=0.0004776598547406073 -1.7878551034380581e-05 -0.00021222354896736187 -4.3963831643010993e-05 0.00011388802331457423 -0.00066782204198720721 -2.3790152985141225e-05 2.74142089060124e-06 0.0033280625150373627 -0.0032285018871423153
leaf_weight=26 25 21 28 30 23 20 20 111 141
leaf_count=26 25 21 28 30 23 20 20 111 141
internal_value=0 0.00267127 0.00289012 -0.00304291 -0.000186316 0.00314208 0.00323295 0.00329238 -0.0031995
internal_weight=0 249 228 196 49 179 151 131 166
internal_count=445 249 228 196 49 179 151 131 166
is_linear=0
shrinkage=0.132801


Tree=106
num_leaves=7
num_cat=0
split_feature=441 270 272 264 413 107
split_gain=1.64475 0.190263 0.113001 0.0754317 0.0751559 0.0264169
threshold=0.13559690430777921 -0.82247886783034463 0.87696033773086957 0.95263832828887451 -1.6006638991207696 -0.78072011129812935
decision_type=2 2 2 2 2 2
left_child=1 -1 4 -3 -2 -6
right_child=2 3 -4 -5 5 -7
leaf_value=0.00028998329779875045 -0.00011555046288487541 -0.003401766406486493 -0.00019363911028263882 9.6212852736618357e-05 -2.7059703107005251e-05 0.0030816448635381916
leaf_weight=27 22 169 23 24 21 159
leaf_count=27 22 169 23 24 21 159
internal_value=0 -0.00296163 0.00267163 -0.00326928 0.00288006 0.00302082
internal_weight=0 220 225 193 202 180
internal_count=445 220 225 193 202 180
is_linear=0
shrinkage=0.132801


Tree=107
num_leaves=10
num_cat=0
split_feature=437 114 78 413 132 258 578 198 14
split_gain=1.61857 0.124298 0.125851 0.0824037 0.0520163 0.0328705 0.0280962 0.0126588 0.0124948
threshold=0.81484915377856226 0.60608536125856449 -0.79071504776899182 -1.6006638991207696 -1.104529926793709 0.26282054803826699 0.48138537958255018 -1.2570056082831849 1.3775581526606591
decision_type=2 2 2 2 2 2 2 2 2
left_child=1 2 -1 -4 -2 -5 -3 -6 -9
right_child=4 6 3 5 7 -7 -8 8 -10
leaf_value=-0.00020126238860777829 6.7890111451898033e-05 0.00030163849071861143 -0.00011886496155851306 0.0032949834198670747 2.3406934275011642e-07 -3.3371569847131446e-05 -0.00050303431093279716 -0.0031573939859824698 2.2856407559394094e-06
leaf_weight=23 26 20 21 141 23 21 23 127 20
leaf_count=23 26 20 21 141 23 21 23 127 20
internal_value=0 0.00261575 0.0028593 0.00307929 -0.00297294 0.0032252 -0.000199506 -0.00307878 -0.00311932
internal_weight=0 249 206 183 196 162 43 170 147
internal_count=445 249 206 183 196 162 43 170 147
is_linear=0
shrinkage=0.132801


Tree=108
num_leaves=9
num_cat=0
split_feature=437 416 380 433 111 258 160 466
split_gain=1.58293 0.122394 0.124113 0.0841139 0.0812668 0.0323497 0.00853175 0.0083796
threshold=0.81484915377856226 0.60608536125856438 -0.79071504776899171 0.96542590203907208 -1.6006638991207696 0.26282054803826699 0.865692236891764 -1.5843549132963151
decision_type=2 2 2 2 2 2 2 2
left_child=1 2 -1 7 -4 -6 -3 -2
right_child=3 6 4 -5 5 -7 -8 -9
leaf_value=-0.00020088577712255837 -9.4048133805430658e-06 -0.00033778502043042 -0.00011866163102561647 0.00011962800962103289 0.0032597323732038355 -3.3314481949601199e-05 0.00013566447348747448 -0.0031393359129434622
leaf_weight=23 25 20 21 30 141 21 23 141
leaf_count=23 25 20 21 30 141 21 23 141
internal_value=0 0.0025835 0.00282589 -0.00294358 0.0030451 0.00319042 -0.000199061 -0.00310378
internal_weight=0 249 206 196 183 162 43 166
internal_count=445 249 206 196 183 162 43 166
is_linear=0
shrinkage=0.132801


Tree=109
num_leaves=9
num_cat=0
split_feature=135 288 380 131 111 299 56 164
split_gain=1.5462 0.120596 0.122399 0.0828833 0.0801464 0.0260302 0.014157 0.00815501
threshold=0.81484915377856215 0.14812861770631497 -0.79071504776899171 0.96542590203907208 -1.6006638991207696 0.086117005900356522 0.421054760853873 -1.5843549132963155
decision_type=2 2 2 2 2 2 2 2
left_child=1 2 -1 7 -4 -6 -3 -2
right_child=3 6 4 -5 5 -7 -8 -9
leaf_value=-0.00020050986456350526 -9.3857117894432931e-06 -0.00039458953017827881 -0.00011845864704644021 0.00011933726900091315 0.0032167778973185165 -2.2594977257369508e-05 0.00019338078804579493 -0.0031057500000214689
leaf_weight=23 25 22 21 30 140 22 21 141
leaf_count=23 25 22 21 30 140 22 21 141
internal_value=0 0.00255147 0.00279283 -0.00291126 0.00301128 0.00315601 -0.000198768 -0.00307065
internal_weight=0 249 206 196 183 162 43 166
internal_count=445 249 206 196 183 162 43 166
is_linear=0
shrinkage=0.132801


Tree=110
num_leaves=9
num_cat=0
split_feature=135 114 78 258 223 33 276 524
split_gain=1.5105 0.1188 0.120723 0.0769041 0.0659883 0.074967 0.0280032 0.0144219
threshold=0.81484915377856215 0.60608536125856449 -0.79071504776899182 0.26282054803826699 -1.3618814378432107 -1.2115277565152025 0.48138537958255018 -0.43273451384413381
decision_type=2 2 2 2 2 2 2 2
left_child=1 2 -1 7 -2 -6 -3 -4
right_child=4 6 3 -5 5 -7 -8 -9
leaf_value=-0.00020013465335534108 9.9698167056203499e-05 0.00030143691982829099 -5.538532674222907e-06 -0.00011070625451795023 0.0001031389367994779 -0.003150172654837264 -0.00050171096182511624 0.0031635476229746047
leaf_weight=23 22 20 20 25 28 146 23 138
leaf_count=23 22 20 20 25 28 146 23 138
internal_value=0 0.00252016 0.00276044 0.00297814 -0.00287929 -0.00300602 -0.000198397 0.00312264
internal_weight=0 249 206 183 196 174 43 158
internal_count=445 249 206 183 196 174 43 158
is_linear=0
shrinkage=0.132801


Tree=111
num_leaves=9
num_cat=0
split_feature=139 572 195 491 467 566 26 288
split_gain=1.46888 0.184182 0.151844 0.114056 0.0991526 0.0784567 0.0496767 0.0145064
threshold=0.13559690430777924 -0.82247886783034452 1.252993579992707 0.10421007456970445 -0.38186984712259658 0.95263832828887474 0.8633925662705233 0.121093096169526
decision_type=2 2 2 2 2 2 2 2
left_child=1 -1 3 7 -5 6 -3 -2
right_child=2 5 -4 4 -6 -7 -8 -9
leaf_value=0.00029611301762926716 0.00020746950287887767 -0.0033510180750023224 -0.0002783576610942635 -0.00014394010738448315 0.0031990205075892422 0.00010771744306466274 5.9515692970482546e-05 -0.00037731487596687376
leaf_weight=27 21 148 20 26 137 24 21 21
leaf_count=27 21 148 20 26 137 24 21 21
internal_value=0 -0.00280503 0.00251902 0.00279676 0.00301928 -0.0031159 -0.00325688 -0.000167685
internal_weight=0 220 225 205 163 193 169 42
internal_count=445 220 225 205 163 193 169 42
is_linear=0
shrinkage=0.132801


Tree=112
num_leaves=8
num_cat=0
split_feature=135 36 574 270 135 430 599
split_gain=1.44366 0.119385 0.0978375 0.0602565 0.0570147 0.0465343 0.0385093
threshold=0.81484915377856215 0.90793990930552326 0.87696033773086957 -0.82247886783034463 -1.1490927483105708 -0.95790188324503711 0.75914231492949813
decision_type=2 2 2 2 2 2 2
left_child=1 2 4 -2 -1 -6 -5
right_child=3 -3 -4 6 5 -7 -8
leaf_value=-8.3109086205867402e-05 9.2458753690333696e-05 -0.00022064741024308598 -0.00016429482755853493 4.3866993002769824e-05 -5.0148092514814733e-05 0.0030963060109221946 -0.0030217681264008331
leaf_weight=23 22 25 24 28 34 143 146
leaf_count=23 22 25 24 28 34 143 146
internal_value=0 0.00246389 0.00269418 -0.00281474 0.00287823 0.00299124 -0.00293405
internal_weight=0 249 224 196 200 177 174
internal_count=445 249 224 196 200 177 174
is_linear=0
shrinkage=0.132801


Tree=113
num_leaves=9
num_cat=0
split_feature=437 421 117 131 574 24 595 264
split_gain=1.40939 0.118641 0.15035 0.0865497 0.0558269 0.0522979 0.0284809 0.00109735
threshold=0.81484915377856226 1.8656112653629182 -0.53866751129408252 0.96542590203907208 -0.12940998349718155 -1.5037726216429075 1.1557065956027908 1.0285735023230409
decision_type=2 2 2 2 2 2 2 2
left_child=1 2 4 7 -1 -4 -7 -2
right_child=3 -3 5 -5 -6 6 -8 -9
leaf_value=0.00044205056826333855 -0.0029726903905735848 -0.00022557749884627329 -7.0136038264763829e-05 0.00013306168165165181 -0.00068042410828320912 -2.6911563221988481e-05 0.0031252148955308655 -1.8029565099666093e-05
leaf_weight=26 144 21 25 30 23 24 130 22
leaf_count=26 144 21 25 30 23 24 130 22
internal_value=0 0.00243318 0.00266115 -0.00278253 -0.000233836 0.00295091 0.00305775 -0.00295242
internal_weight=0 249 228 196 49 179 154 166
internal_count=445 249 228 196 49 179 154 166
is_linear=0
shrinkage=0.132801


Tree=114
num_leaves=9
num_cat=0
split_feature=135 114 285 23 560 220 578 578
split_gain=1.37742 0.119266 0.118459 0.0801714 0.0774145 0.0572868 0.0851338 0.0275016
threshold=0.81484915377856215 0.60608536125856449 -0.41457770708696989 1.8582789840217311 0.26282054803826699 -1.0630308618566324 0.81345289015746858 0.48138537958255018
decision_type=2 2 2 2 2 2 2 2
left_child=1 2 -1 4 -4 -2 -7 -3
right_child=5 7 3 -5 -6 6 -8 -9
leaf_value=-0.00020457756272268014 7.901968501050925e-05 0.00029360376322711256 0.0031667770939248869 -0.00012543839449860096 -0.00011133581472086319 -0.0030364616321039506 0.00013367838698250846 -0.00050576212741395058
leaf_weight=23 34 20 139 21 23 141 21 23
leaf_count=23 34 20 139 21 23 141 21 23
internal_value=0 0.00240495 0.00265317 0.00287354 0.00302306 -0.0027513 -0.00287742 -0.000210123
internal_weight=0 249 206 183 162 196 162 43
internal_count=445 249 206 183 162 196 162 43
is_linear=0
shrinkage=0.132801


Tree=115
num_leaves=8
num_cat=0
split_feature=135 189 497 128 33 295 587
split_gain=1.34472 0.119686 0.139598 0.0669808 0.0661699 0.0365932 0.032333
threshold=0.81484915377856215 -0.21773887964403613 1.2529935799927068 -0.95790188324503689 -1.2115277565152025 -0.38476071362096603 1.2123358811423925
decision_type=2 2 2 2 2 2 2
left_child=1 -1 3 -3 -2 -6 -5
right_child=4 2 -4 6 5 -7 -8
leaf_value=-0.00021819966877731402 9.7585148984361464e-05 -8.927866428748836e-05 -0.00024605665432524566 -2.5986663034073173e-05 4.8206125435745719e-05 -0.0029421834069536276 0.0030975628071296356
leaf_weight=38 33 35 21 33 22 141 122
leaf_count=38 33 35 21 33 22 141 122
internal_value=0 0.00237461 0.00262165 0.00287519 -0.00272021 -0.00286129 0.00301543
internal_weight=0 249 211 190 196 163 155
internal_count=445 249 211 190 196 163 155
is_linear=0
shrinkage=0.132801


Tree=116
num_leaves=9
num_cat=0
split_feature=135 491 195 300 223 33 589 326
split_gain=1.31536 0.117996 0.13795 0.0862726 0.0665997 0.0809864 0.0446044 0.0322115
threshold=0.81484915377856215 -0.21773887964403607 1.252993579992707 0.1258274112281953 -1.3618814378432107 -1.2115277565152025 1.2136518567161911 -1.5156055657248768
decision_type=2 2 2 2 2 2 2 2
left_child=1 -1 3 6 -2 -6 -3 -8
right_child=4 2 -4 -5 5 -7 7 -9
leaf_value=-0.00021753120930432802 0.0001098238166522459 -4.5132363227033447e-05 -0.00024563573600298183 -0.00013157129469647873 0.00012282198637276922 -0.0029832662562753317 -3.4799367457559528e-05 0.0031870354630740695
leaf_weight=38 22 35 21 27 28 146 21 107
leaf_count=38 22 35 21 27 28 146 21 107
internal_value=0 0.00234885 0.00259474 0.00284759 -0.00269001 -0.00282366 0.00301245 0.00311585
internal_weight=0 249 211 190 196 174 163 128
internal_count=445 249 211 190 196 174 163 128
is_linear=0
shrinkage=0.132801


Tree=117
num_leaves=9
num_cat=0
split_feature=441 270 195 11 264 26 287 24
split_gain=1.28699 0.175985 0.14478 0.126928 0.0809706 0.0577004 0.0405354 0.0177196
threshold=0.13559690430777921 -0.82247886783034463 1.252993579992707 -1.0492232238239441 0.95263832828887451 0.8633925662705233 -0.37423860565880324 -1.5915629651970662
decision_type=2 2 2 2 2 2 2 2
left_child=1 -1 3 -2 5 -3 -5 -8
right_child=2 4 -4 6 -6 -7 7 -9
leaf_value=0.00030167498829059269 -0.00022350664968081603 -0.0031982840245398615 -0.00028244222100732143 -5.5977034752769154e-05 0.00012051711636373877 7.8070671676971749e-05 -1.2954436919827173e-05 0.0030030554732615195
leaf_weight=27 20 148 20 21 24 21 21 143
leaf_count=27 20 148 20 21 24 21 21 143
internal_value=0 -0.00262537 0.00235814 0.00263777 -0.00293859 -0.00308894 0.00287013 0.00295558
internal_weight=0 220 225 205 193 169 185 164
internal_count=445 220 225 205 193 169 185 164
is_linear=0
shrinkage=0.132801


Tree=118
num_leaves=9
num_cat=0
split_feature=441 195 445 11 234 102 26 24
split_gain=1.25429 0.142775 0.13079 0.125241 0.1163 0.039933 0.0307004 0.0174018
threshold=0.13559690430777921 1.252993579992707 0.92436632321626411 -1.0492232238239441 -1.1612004452325719 -0.68967107176191267 0.8633925662705233 -1.5915629651970662
decision_type=2 2 2 2 2 2 2 2
left_child=2 3 4 -2 -1 -5 -6 -7
right_child=1 -3 -4 5 6 7 -8 -9
leaf_value=0.00018602380498253712 -0.00022314229681457469 -0.00028198179596370808 0.00022867150311400714 -5.5881281990182868e-05 -0.0031126053968174301 -1.2932270075402049e-05 3.4868722683470852e-05 0.0029705091560288444
leaf_weight=24 20 20 26 21 150 21 20 143
leaf_count=24 20 20 26 21 150 21 20 143
internal_value=0 0.00232788 -0.00259193 0.00260677 -0.00283667 0.00283845 -0.00304569 0.00292344
internal_weight=0 225 220 205 194 185 170 164
internal_count=445 225 220 205 194 185 170 164
is_linear=0
shrinkage=0.132801


Tree=119
num_leaves=11
num_cat=0
split_feature=437 114 409 131 522 326 276 466 5 326
